{"learner":{"attributes":{"best_iteration":"1","best_score":"14.842655268943986","scikit_learn":"{\"_estimator_type\": \"regressor\"}"},"feature_names":["day_of_week","weekend","minute_of_day","month"],"feature_types":["int","i","int","int"],"gradient_booster":{"model":{"gbtree_model_param":{"num_parallel_tree":"1","num_trees":"102"},"iteration_indptr":[0,1,2,3,4,5,6,7,8,9,10,11,12,13,14,15,16,17,18,19,20,21,22,23,24,25,26,27,28,29,30,31,32,33,34,35,36,37,38,39,40,41,42,43,44,45,46,47,48,49,50,51,52,53,54,55,56,57,58,59,60,61,62,63,64,65,66,67,68,69,70,71,72,73,74,75,76,77,78,79,80,81,82,83,84,85,86,87,88,89,90,91,92,93,94,95,96,97,98,99,100,101,102],"tree_info":[0,0,0,0,0,0,0,0,0,0,0,0,0,0,0,0,0,0,0,0,0,0,0,0,0,0,0,0,0,0,0,0,0,0,0,0,0,0,0,0,0,0,0,0,0,0,0,0,0,0,0,0,0,0,0,0,0,0,0,0,0,0,0,0,0,0,0,0,0,0,0,0,0,0,0,0,0,0,0,0,0,0,0,0,0,0,0,0,0,0,0,0,0,0,0,0,0,0,0,0,0,0],"trees":[{"base_weights":[-5.411455E-7,-2.0388026E0,1.0200823E1,6.6535616E0,-3.0438166E0,4.116754E0,1.9635973E1,4.0176973E0,1.0575344E1,-4.6214666E0,-1.1092308E0,1.4606803E1,1.942584E0,2.894928E1,7.074206E0,6.5553713E0,2.1833172E0,2.53893E1,8.352308E0,5.402309E-1,-6.559155E0,6.230137E-1,-5.479948E0,2.4681734E1,9.575285E0,-3.0474288E0,3.6089702E0,1.6269213E1,4.3426563E1,1.6492447E1,3.323075E0,8.529923E0,5.1622634E0,1.4877837E0,6.179612E0,6.429116E1,4.78431E0,9.383489E0,2.8784637E0,1.889059E0,-2.2778957E0,-3.718697E0,-7.9867153E0,-1.1589606E0,2.9616175E0,-3.1036656E0,-7.8402543E0,1.8595302E0,3.044414E1,4.450224E0,1.4477666E1,-3.9347334E0,5.428487E-1,2.0128436E0,6.766979E0,3.1047258E1,2.8152606E0,7.237113E1,1.1872075E1,3.5217556E1,8.326124E0,7.2959363E-1,8.389292E0,3.4208252E0,1.7717608E0,1.1410849E0,2.4686837E0,9.29201E-2,1.2928417E0,3.4403977E0,4.2879516E-1,4.2153196E0,3.114482E1,1.9078E0,6.7750484E-1,2.3555007E0,5.17417E0,2.4354662E-1,1.2947935E0,1.0452878E0,-3.9090422E-1,-5.0069827E-1,-1.7806705E0,-1.3862984E0,-4.4585222E-1,-1.6496198E0,-2.8430076E0,3.297141E-1,-7.8883845E-1,3.176737E0,1.09135896E-1,-5.2354366E-1,-1.8012333E0,-1.2801981E0,-2.9013224E0,1.1315937E1,4.135985E0,1.0860658E0,1.5233837E0,5.1236567E0,3.3655205E0,-9.8111564E-1,-1.7103039E0,8.956187E-1,-1.7278595E0,3.1779635E-1,1.7334915E0,3.5589397E0,-2.4660048E-1,4.463627E0,1.4470427E1,1.5546292E0,-1.1229209E0,2.7713789E1,3.1330314E0,2.1083062E0,4.9000483E0,1.9313826E1,6.3877234E0,2.9945645E0,8.7089366E-1,1.100359E0,-6.670697E-1,5.3967957E0,9.568807E-1],"categories":[],"categories_nodes":[],"categories_segments":[],"categories_sizes":[],"default_left":[0,0,0,0,0,0,0,0,0,0,0,0,0,0,0,0,0,0,0,0,0,0,0,0,0,0,0,0,0,0,0,0,0,0,0,0,0,0,0,0,0,0,0,0,0,0,0,0,0,0,0,0,0,0,0,0,0,0,0,0,0,0,0,0,0,0,0,0,0,0,0,0,0,0,0,0,0,0,0,0,0,0,0,0,0,0,0,0,0,0,0,0,0,0,0,0,0,0,0,0,0,0,0,0,0,0,0,0,0,0,0,0,0,0,0,0,0,0,0,0,0,0,0,0,0],"id":0,"left_children":[1,3,5,7,9,11,13,15,17,19,21,23,25,27,29,31,33,35,37,39,41,43,45,47,49,51,53,55,57,59,61,63,65,67,69,71,73,75,77,79,81,83,85,87,89,91,93,-1,95,97,99,101,103,105,107,109,111,113,115,117,119,121,123,-1,-1,-1,-1,-1,-1,-1,-1,-1,-1,-1,-1,-1,-1,-1,-1,-1,-1,-1,-1,-1,-1,-1,-1,-1,-1,-1,-1,-1,-1,-1,-1,-1,-1,-1,-1,-1,-1,-1,-1,-1,-1,-1,-1,-1,-1,-1,-1,-1,-1,-1,-1,-1,-1,-1,-1,-1,-1,-1,-1,-1,-1],"loss_changes":[1.4945055E5,5.2339832E4,6.863187E4,6.376965E3,1.6381602E4,1.6598035E4,5.4664266E4,1.7220244E3,7.987998E3,2.9578754E4,1.8272604E4,6.1001875E3,5.041747E3,4.8674625E4,7.046336E3,3.8508545E2,5.9674963E2,2.5342729E4,1.2034961E3,3.075647E3,8.688391E3,7.2087495E3,3.817662E3,4.178133E3,2.0711958E3,4.863579E2,2.2748032E3,2.874195E4,1.133072E5,8.422945E3,1.8990547E3,4.075796E2,3.6035498E2,6.202701E2,7.874922E2,2.0384363E4,7.3164215E1,2.0689697E3,1.03446014E2,2.7899202E3,5.736102E2,1.4455146E3,5.2489375E3,3.263524E3,1.4817748E4,1.3410496E3,2.2024238E3,0E0,3.2369941E3,4.0202026E0,1.7295508E2,1.2451318E2,4.9440408E2,1.0817863E3,5.888291E3,1.8457148E4,1.2146289E3,7.957409E4,1.2035977E3,5.532621E3,3.391787E2,8.498419E2,2.388562E3,0E0,0E0,0E0,0E0,0E0,0E0,0E0,0E0,0E0,0E0,0E0,0E0,0E0,0E0,0E0,0E0,0E0,0E0,0E0,0E0,0E0,0E0,0E0,0E0,0E0,0E0,0E0,0E0,0E0,0E0,0E0,0E0,0E0,0E0,0E0,0E0,0E0,0E0,0E0,0E0,0E0,0E0,0E0,0E0,0E0,0E0,0E0,0E0,0E0,0E0,0E0,0E0,0E0,0E0,0E0,0E0,0E0,0E0,0E0,0E0,0E0,0E0],"parents":[2147483647,0,0,1,1,2,2,3,3,4,4,5,5,6,6,7,7,8,8,9,9,10,10,11,11,12,12,13,13,14,14,15,15,16,16,17,17,18,18,19,19,20,20,21,21,22,22,23,23,24,24,25,25,26,26,27,27,28,28,29,29,30,30,31,31,32,32,33,33,34,34,35,35,36,36,37,37,38,38,39,39,40,40,41,41,42,42,43,43,44,44,45,45,46,46,48,48,49,49,50,50,51,51,52,52,53,53,54,54,55,55,56,56,57,57,58,58,59,59,60,60,61,61,62,62],"right_children":[2,4,6,8,10,12,14,16,18,20,22,24,26,28,30,32,34,36,38,40,42,44,46,48,50,52,54,56,58,60,62,64,66,68,70,72,74,76,78,80,82,84,86,88,90,92,94,-1,96,98,100,102,104,106,108,110,112,114,116,118,120,122,124,-1,-1,-1,-1,-1,-1,-1,-1,-1,-1,-1,-1,-1,-1,-1,-1,-1,-1,-1,-1,-1,-1,-1,-1,-1,-1,-1,-1,-1,-1,-1,-1,-1,-1,-1,-1,-1,-1,-1,-1,-1,-1,-1,-1,-1,-1,-1,-1,-1,-1,-1,-1,-1,-1,-1,-1,-1,-1,-1,-1,-1,-1],"split_conditions":[1.2E3,2E0,7E0,7.2E2,6.6E2,2E0,4E0,3E2,7.8E2,1.8E2,5E0,2E0,1.26E3,9E0,8E0,1.2E2,6.6E2,2E0,6E0,8E0,5E0,7E0,6E0,1.26E3,1.32E3,6E0,1.38E3,8E0,1E1,5E0,6E0,3E0,5E0,5E0,3E0,1E0,5E0,5E0,9.6E2,1.2E2,6E0,5E0,3.6E2,4E0,8E0,8E0,5E0,1.8595302E0,1.38E3,1.26E3,1.38E3,5E0,5E0,6E0,5E0,2E0,3E0,1.38E3,1.32E3,1.26E3,1.38E3,5E0,9E0,3.4208252E0,1.7717608E0,1.1410849E0,2.4686837E0,9.29201E-2,1.2928417E0,3.4403977E0,4.2879516E-1,4.2153196E0,3.114482E1,1.9078E0,6.7750484E-1,2.3555007E0,5.17417E0,2.4354662E-1,1.2947935E0,1.0452878E0,-3.9090422E-1,-5.0069827E-1,-1.7806705E0,-1.3862984E0,-4.4585222E-1,-1.6496198E0,-2.8430076E0,3.297141E-1,-7.8883845E-1,3.176737E0,1.09135896E-1,-5.2354366E-1,-1.8012333E0,-1.2801981E0,-2.9013224E0,1.1315937E1,4.135985E0,1.0860658E0,1.5233837E0,5.1236567E0,3.3655205E0,-9.8111564E-1,-1.7103039E0,8.956187E-1,-1.7278595E0,3.1779635E-1,1.7334915E0,3.5589397E0,-2.4660048E-1,4.463627E0,1.4470427E1,1.5546292E0,-1.1229209E0,2.7713789E1,3.1330314E0,2.1083062E0,4.9000483E0,1.9313826E1,6.3877234E0,2.9945645E0,8.7089366E-1,1.100359E0,-6.670697E-1,5.3967957E0,9.568807E-1],"split_indices":[2,3,3,2,2,3,0,2,2,2,0,0,2,3,3,2,2,0,0,3,3,3,0,2,2,3,2,3,3,0,0,0,0,0,0,0,0,0,2,2,0,0,2,3,3,3,3,0,2,2,2,3,0,3,3,0,0,2,2,2,2,0,3,0,0,0,0,0,0,0,0,0,0,0,0,0,0,0,0,0,0,0,0,0,0,0,0,0,0,0,0,0,0,0,0,0,0,0,0,0,0,0,0,0,0,0,0,0,0,0,0,0,0,0,0,0,0,0,0,0,0,0,0,0,0],"split_type":[0,0,0,0,0,0,0,0,0,0,0,0,0,0,0,0,0,0,0,0,0,0,0,0,0,0,0,0,0,0,0,0,0,0,0,0,0,0,0,0,0,0,0,0,0,0,0,0,0,0,0,0,0,0,0,0,0,0,0,0,0,0,0,0,0,0,0,0,0,0,0,0,0,0,0,0,0,0,0,0,0,0,0,0,0,0,0,0,0,0,0,0,0,0,0,0,0,0,0,0,0,0,0,0,0,0,0,0,0,0,0,0,0,0,0,0,0,0,0,0,0,0,0,0,0],"sum_hessian":[7.184E3,5.988E3,1.196E3,6.2E2,5.368E3,7.28E2,4.68E2,3.72E2,2.48E2,2.956E3,2.412E3,1.24E2,6.04E2,2.68E2,2E2,1.55E2,2.17E2,3.1E1,2.17E2,8.07E2,2.149E3,1.728E3,6.84E2,4E1,8.4E1,1.51E2,4.53E2,1.44E2,1.24E2,5.6E1,1.44E2,6.2E1,9.3E1,1.86E2,3.1E1,1E1,2.1E1,1.82E2,3.5E1,5.46E2,2.61E2,7.2E2,1.429E3,9.81E2,7.47E2,3.42E2,3.42E2,1E1,3E1,4.2E1,4.2E1,1.21E2,3E1,3.02E2,1.51E2,6.8E1,7.6E1,6.4E1,6E1,1.6E1,4E1,9.6E1,4.8E1,2.8E1,3.4E1,6.6E1,2.7E1,1.32E2,5.4E1,1.4E1,1.7E1,5E0,5E0,1.2E1,9E0,1.54E2,2.8E1,1.5E1,2E1,3.64E2,1.82E2,2.25E2,3.6E1,5.12E2,2.08E2,5.37E2,8.92E2,3.87E2,5.94E2,1.89E2,5.58E2,2.34E2,1.08E2,1.17E2,2.25E2,2E1,1E1,2.1E1,2.1E1,2.1E1,2.1E1,9E1,3.1E1,2.2E1,8E0,2.42E2,6E1,9E1,6.1E1,3.6E1,3.2E1,5.6E1,2E1,4.8E1,1.6E1,3E1,3E1,4E0,1.2E1,3E1,1E1,4.8E1,4.8E1,1.6E1,3.2E1],"tree_param":{"num_deleted":"0","num_feature":"4","num_nodes":"125","size_leaf_vector":"1"}},{"base_weights":[2.4114473E-2,-1.4189067E0,7.244022E0,4.7558355E0,-2.1328378E0,2.923223E0,1.3944701E1,2.8500752E0,7.5915494E0,-1.5877209E0,-5.4315376E0,1.0452043E1,1.3628501E0,2.6837048E1,8.598766E0,5.552742E0,1.9325725E0,1.8958303E1,5.8882113E0,-3.1433628E0,-2.5980443E-2,-1.7331111E0,-7.3474216E0,1.7699444E1,6.8332715E0,-2.156382E0,2.5380933E0,7.847408E0,4.7750996E1,2.0407965E1,4.273798E0,7.115612E0,4.153585E0,1.4474419E0,4.368944E0,4.821837E1,3.46653E0,6.609587E0,2.0576556E0,6.948662E-1,-4.789766E0,4.65799E-1,-2.5054617E0,8.752275E0,-2.31804E0,-1.2569178E1,-6.3253083E0,9.534803E0,2.5021254E1,3.1758416E0,1.0331788E1,-1.2107638E0,-4.525257E0,3.6621594E0,-3.8499168E-1,1.2152903E1,3.329821E0,7.0376487E0,8.701734E1,3.2111908E1,5.922566E0,7.7594666E0,7.5338304E-1,2.4299653E0,1.4214939E0,2.2374953E-1,2.114364E0,8.429237E-1,-4.59325E-2,1.9761741E0,-6.0623005E-2,3.1614895E0,2.3358614E1,1.2674966E0,2.2194292E-1,1.6534094E0,3.675445E0,-1.7528344E-2,8.6213434E-1,9.8306954E-1,-1.8013173E-1,-8.977777E-1,-1.8407594E0,-1.9185378E-1,5.7491267E-1,-4.6130282E-1,-1.371688E0,7.2335726E-1,3.3142772E0,-5.005049E-1,-1.4030793E0,-2.698791E0,-5.24819E0,-2.3004973E0,-2.778696E-1,-2.0685166E-1,5.667694E0,1.1322366E1,3.0079892E0,1.0223243E0,6.574233E-1,3.6564276E0,2.4017577E0,-6.2094724E-1,6.3861513E-1,-5.8156204E-1,-1.518336E0,2.2841115E0,8.247228E-1,2.583637E-1,-7.158962E-1,4.873164E0,2.2266898E0,1.5901879E0,-7.564247E-1,-2.709806E0,3.762439E0,4.7050606E1,3.6242046E0,1.3027555E1,5.854248E0,2.1251748E0,6.3337713E-1,4.3076463E0,9.127996E-1,-6.29676E-1,2.395457E0],"categories":[],"categories_nodes":[],"categories_segments":[],"categories_sizes":[],"default_left":[0,0,0,0,0,0,0,0,0,0,0,0,0,0,0,0,0,0,0,0,0,0,0,0,0,0,0,0,0,0,0,0,0,0,0,0,0,0,0,0,0,0,0,0,0,0,0,0,0,0,0,0,0,0,0,0,0,0,0,0,0,0,0,0,0,0,0,0,0,0,0,0,0,0,0,0,0,0,0,0,0,0,0,0,0,0,0,0,0,0,0,0,0,0,0,0,0,0,0,0,0,0,0,0,0,0,0,0,0,0,0,0,0,0,0,0,0,0,0,0,0,0,0,0,0,0,0],"id":1,"left_children":[1,3,5,7,9,11,13,15,17,19,21,23,25,27,29,31,33,35,37,39,41,43,45,47,49,51,53,55,57,59,61,63,65,67,69,71,73,75,77,79,81,83,85,87,89,91,93,95,97,99,101,103,105,107,109,111,113,115,117,119,121,123,125,-1,-1,-1,-1,-1,-1,-1,-1,-1,-1,-1,-1,-1,-1,-1,-1,-1,-1,-1,-1,-1,-1,-1,-1,-1,-1,-1,-1,-1,-1,-1,-1,-1,-1,-1,-1,-1,-1,-1,-1,-1,-1,-1,-1,-1,-1,-1,-1,-1,-1,-1,-1,-1,-1,-1,-1,-1,-1,-1,-1,-1,-1,-1,-1],"loss_changes":[7.4867055E4,2.6411691E4,3.4615125E4,3.3343672E3,9.645789E3,8.549877E3,3.2093484E4,9.141987E2,4.7093643E3,1.1197524E4,5.3795254E3,3.1573887E3,2.507725E3,5.40346E4,1.6920559E4,1.7599463E2,3.246244E2,1.4338142E4,5.88792E2,1.4594525E4,2.8069094E3,1.6210542E3,2.5944473E3,2.2124062E3,1.0548127E3,3.3500885E2,1.4931365E3,1.379415E3,1.033008E5,1.4898547E4,3.0005488E3,6.2236084E1,5.0762158E2,5.128325E2,4.6776697E2,1.1466201E4,4.237259E1,1.0663569E3,6.233954E1,2.3230645E3,3.8910234E3,3.0812397E3,7.550647E2,1.7712915E2,3.7226904E2,1.2680049E3,3.045586E3,2.0221815E3,3.6269355E3,2.3489075E0,8.808154E1,3.199757E2,4.9792175E1,1.162523E3,3.1880127E2,5.9548584E2,4.400361E2,3.0320718E3,1.7075892E5,6.136164E3,1.6652087E2,3.7850356E3,2.5538013E3,0E0,0E0,0E0,0E0,0E0,0E0,0E0,0E0,0E0,0E0,0E0,0E0,0E0,0E0,0E0,0E0,0E0,0E0,0E0,0E0,0E0,0E0,0E0,0E0,0E0,0E0,0E0,0E0,0E0,0E0,0E0,0E0,0E0,0E0,0E0,0E0,0E0,0E0,0E0,0E0,0E0,0E0,0E0,0E0,0E0,0E0,0E0,0E0,0E0,0E0,0E0,0E0,0E0,0E0,0E0,0E0,0E0,0E0,0E0,0E0,0E0,0E0,0E0,0E0],"parents":[2147483647,0,0,1,1,2,2,3,3,4,4,5,5,6,6,7,7,8,8,9,9,10,10,11,11,12,12,13,13,14,14,15,15,16,16,17,17,18,18,19,19,20,20,21,21,22,22,23,23,24,24,25,25,26,26,27,27,28,28,29,29,30,30,31,31,32,32,33,33,34,34,35,35,36,36,37,37,38,38,39,39,40,40,41,41,42,42,43,43,44,44,45,45,46,46,47,47,48,48,49,49,50,50,51,51,52,52,53,53,54,54,55,55,56,56,57,57,58,58,59,59,60,60,61,61,62,62],"right_children":[2,4,6,8,10,12,14,16,18,20,22,24,26,28,30,32,34,36,38,40,42,44,46,48,50,52,54,56,58,60,62,64,66,68,70,72,74,76,78,80,82,84,86,88,90,92,94,96,98,100,102,104,106,108,110,112,114,116,118,120,122,124,126,-1,-1,-1,-1,-1,-1,-1,-1,-1,-1,-1,-1,-1,-1,-1,-1,-1,-1,-1,-1,-1,-1,-1,-1,-1,-1,-1,-1,-1,-1,-1,-1,-1,-1,-1,-1,-1,-1,-1,-1,-1,-1,-1,-1,-1,-1,-1,-1,-1,-1,-1,-1,-1,-1,-1,-1,-1,-1,-1,-1,-1,-1,-1,-1],"split_conditions":[1.2E3,2E0,7E0,7.2E2,6E0,2E0,2E0,1.8E2,7.8E2,6E2,5E0,2E0,1.26E3,9E0,8E0,3E0,6E0,2E0,6E0,1.8E2,5E0,6E1,6E0,1.32E3,1.32E3,5E0,5E0,1E0,1E0,5E0,1.32E3,1.2E2,5E0,3E0,5.4E2,1E0,6E0,5E0,9E2,6E1,3.6E2,7E0,8E0,3E0,9.6E2,7.2E2,9.6E2,1E0,1.38E3,6E0,1.38E3,6E0,3E0,3E0,5E0,1.32E3,1.38E3,1.26E3,1E1,1.32E3,1.38E3,4E0,1E1,2.4299653E0,1.4214939E0,2.2374953E-1,2.114364E0,8.429237E-1,-4.59325E-2,1.9761741E0,-6.0623005E-2,3.1614895E0,2.3358614E1,1.2674966E0,2.2194292E-1,1.6534094E0,3.675445E0,-1.7528344E-2,8.6213434E-1,9.8306954E-1,-1.8013173E-1,-8.977777E-1,-1.8407594E0,-1.9185378E-1,5.7491267E-1,-4.6130282E-1,-1.371688E0,7.2335726E-1,3.3142772E0,-5.005049E-1,-1.4030793E0,-2.698791E0,-5.24819E0,-2.3004973E0,-2.778696E-1,-2.0685166E-1,5.667694E0,1.1322366E1,3.0079892E0,1.0223243E0,6.574233E-1,3.6564276E0,2.4017577E0,-6.2094724E-1,6.3861513E-1,-5.8156204E-1,-1.518336E0,2.2841115E0,8.247228E-1,2.583637E-1,-7.158962E-1,4.873164E0,2.2266898E0,1.5901879E0,-7.564247E-1,-2.709806E0,3.762439E0,4.7050606E1,3.6242046E0,1.3027555E1,5.854248E0,2.1251748E0,6.3337713E-1,4.3076463E0,9.127996E-1,-6.29676E-1,2.395457E0],"split_indices":[2,3,3,2,0,3,0,2,2,2,3,0,2,3,3,0,0,0,0,2,0,2,3,2,2,0,0,0,0,0,2,2,0,0,2,0,0,0,2,2,2,3,3,3,2,2,2,0,2,0,2,3,3,3,3,2,2,2,3,2,2,0,3,0,0,0,0,0,0,0,0,0,0,0,0,0,0,0,0,0,0,0,0,0,0,0,0,0,0,0,0,0,0,0,0,0,0,0,0,0,0,0,0,0,0,0,0,0,0,0,0,0,0,0,0,0,0,0,0,0,0,0,0,0,0,0,0],"split_type":[0,0,0,0,0,0,0,0,0,0,0,0,0,0,0,0,0,0,0,0,0,0,0,0,0,0,0,0,0,0,0,0,0,0,0,0,0,0,0,0,0,0,0,0,0,0,0,0,0,0,0,0,0,0,0,0,0,0,0,0,0,0,0,0,0,0,0,0,0,0,0,0,0,0,0,0,0,0,0,0,0,0,0,0,0,0,0,0,0,0,0,0,0,0,0,0,0,0,0,0,0,0,0,0,0,0,0,0,0,0,0,0,0,0,0,0,0,0,0,0,0,0,0,0,0,0,0],"sum_hessian":[7.184E3,5.988E3,1.196E3,6.2E2,5.368E3,7.28E2,4.68E2,3.72E2,2.48E2,4.608E3,7.6E2,1.24E2,6.04E2,1.36E2,3.32E2,9.3E1,2.79E2,3.1E1,2.17E2,2.308E3,2.3E3,2.6E2,5E2,4E1,8.4E1,1.51E2,4.53E2,7.2E1,6.4E1,8.8E1,2.44E2,4.2E1,5.1E1,2.34E2,4.5E1,1E1,2.1E1,1.82E2,3.5E1,6.93E2,1.615E3,1.92E3,3.8E2,1.3E1,2.47E2,8E1,4.2E2,2E1,2E1,4.2E1,4.2E1,1.09E2,4.2E1,3.27E2,1.26E2,3.6E1,3.6E1,3.2E1,3.2E1,4.8E1,4E1,1.22E2,1.22E2,2.8E1,1.4E1,2.4E1,2.7E1,1.26E2,1.08E2,3E1,1.5E1,5E0,5E0,1.6E1,5E0,1.54E2,2.8E1,1E1,2.5E1,2.31E2,4.62E2,6.93E2,9.22E2,1.09E3,8.3E2,2.6E2,1.2E2,4E0,9E0,1.95E2,5.2E1,4.8E1,3.2E1,3.36E2,8.4E1,1E1,1E1,1E1,1E1,3.2E1,1E1,2.1E1,2.1E1,8.7E1,2.2E1,8E0,3.4E1,6E1,2.67E2,7.8E1,4.8E1,1.8E1,1.8E1,2.7E1,9E0,8E0,2.4E1,1.6E1,1.6E1,2.4E1,2.4E1,3E1,1E1,5E1,7.2E1,8.8E1,3.4E1],"tree_param":{"num_deleted":"0","num_feature":"4","num_nodes":"127","size_leaf_vector":"1"}},{"base_weights":[3.743614E-2,-9.880069E-1,5.1680465E0,3.398465E0,-1.4951798E0,2.0847998E0,9.949537E0,1.8178679E0,5.316914E0,-1.112139E0,-3.813103E0,7.5366626E0,9.5493585E-1,1.9221415E1,6.1051025E0,3.4101915E0,4.7979116E-1,9.343261E0,3.360522E0,-2.2011921E0,-1.881607E-2,-1.2050009E0,-5.1642036E0,1.2872323E1,4.8743243E0,-6.8804435E-2,4.006404E0,5.6018653E0,3.4221504E1,1.4528724E1,3.020174E0,5.656578E0,2.9383118E0,-2.9828387E-1,2.3525946E0,2.2861006E1,5.2134595E0,4.02129E0,1.2046127E0,4.875631E-1,-3.3545308E0,3.26259E-1,-1.7586333E0,3.2294316E0,-1.9985697E0,-7.7045646E0,-3.9496515E0,2.0257525E0,1.630587E1,2.2621536E0,7.3731384E0,-2.043155E0,1.2001601E0,9.407588E0,4.786891E-1,8.698919E0,2.3534093E0,4.9582524E0,6.244774E1,2.2863678E1,4.2130775E0,7.9918594E0,1.3285182E0,1.8374957E0,9.223171E-1,5.771849E-1,1.4312557E0,1.4431183E-1,-4.9322513E-1,1.1514897E0,2.3486069E-1,1.9830579E0,1.11100645E1,8.656067E-1,2.2190235E0,5.481856E-1,1.8480624E0,1.2887384E-1,7.892855E-1,4.155319E-1,-4.1315857E-1,-2.7154148E-1,-1.2145073E0,-1.3435018E-1,4.0264633E-1,-1.276669E0,-3.3674842E-1,1.9244983E0,4.374149E-1,-4.821838E-1,-1.1216279E0,-1.1471359E0,-2.591279E0,-3.238352E-1,-1.5408381E0,9.6215E-1,1.5201397E-1,6.075271E0,2.1876283E0,5.071794E-1,8.1926525E-1,2.6093593E0,1.7139813E0,-1.0220528E0,2.0866345E-1,5.9750867E-1,-1.0618439E0,1.9227492E0,3.92463E0,7.2320604E-1,-6.424425E-1,3.6196353E0,1.2085687E0,1.1301695E0,-5.5219024E-1,-1.9871911E0,2.6788568E0,3.3765724E1,2.6008995E0,9.275619E0,4.1682243E0,7.004014E-1,1.7672585E0,5.5351596E0,1.27958E-1,3.9390136E-2,1.8244451E0],"categories":[],"categories_nodes":[],"categories_segments":[],"categories_sizes":[],"default_left":[0,0,0,0,0,0,0,0,0,0,0,0,0,0,0,0,0,0,0,0,0,0,0,0,0,0,0,0,0,0,0,0,0,0,0,0,0,0,0,0,0,0,0,0,0,0,0,0,0,0,0,0,0,0,0,0,0,0,0,0,0,0,0,0,0,0,0,0,0,0,0,0,0,0,0,0,0,0,0,0,0,0,0,0,0,0,0,0,0,0,0,0,0,0,0,0,0,0,0,0,0,0,0,0,0,0,0,0,0,0,0,0,0,0,0,0,0,0,0,0,0,0,0,0,0,0,0],"id":2,"left_children":[1,3,5,7,9,11,13,15,17,19,21,23,25,27,29,31,33,35,37,39,41,43,45,47,49,51,53,55,57,59,61,63,65,67,69,71,73,75,77,79,81,83,85,87,89,91,93,95,97,99,101,103,105,107,109,111,113,115,117,119,121,123,125,-1,-1,-1,-1,-1,-1,-1,-1,-1,-1,-1,-1,-1,-1,-1,-1,-1,-1,-1,-1,-1,-1,-1,-1,-1,-1,-1,-1,-1,-1,-1,-1,-1,-1,-1,-1,-1,-1,-1,-1,-1,-1,-1,-1,-1,-1,-1,-1,-1,-1,-1,-1,-1,-1,-1,-1,-1,-1,-1,-1,-1,-1,-1,-1],"loss_changes":[3.780646E4,1.3328808E4,1.7626049E4,1.8733906E3,4.762675E3,4.4833433E3,1.6600219E4,7.2704675E2,2.1741924E3,5.487834E3,2.6753955E3,1.7129229E3,1.8902417E3,2.7796637E4,8.60955E3,1.4874292E2,2.731947E2,4.9609453E3,2.6582153E2,7.161949E3,1.3820194E3,9.249205E2,1.5153564E3,1.4938989E3,5.381439E2,1.139895E3,2.8916802E3,7.139551E2,5.3379805E4,7.5559336E3,2.049926E3,1.2616882E1,2.3433179E2,1.40283E2,1.25263245E2,4.591823E3,3.395448E2,6.69199E2,4.9720947E1,1.163456E3,2.7426543E3,1.5112706E3,6.00401E2,2.1636053E2,1.4515497E2,5.499346E2,1.1557051E3,1.8115639E1,9.5467773E2,6.9031067E0,4.485791E1,6.6715173E2,1.0462407E3,5.772197E2,4.7594247E2,5.3314087E2,2.2633047E2,1.5770212E3,8.794379E4,3.1106895E3,1.1546069E2,4.8977773E3,1.0462229E3,0E0,0E0,0E0,0E0,0E0,0E0,0E0,0E0,0E0,0E0,0E0,0E0,0E0,0E0,0E0,0E0,0E0,0E0,0E0,0E0,0E0,0E0,0E0,0E0,0E0,0E0,0E0,0E0,0E0,0E0,0E0,0E0,0E0,0E0,0E0,0E0,0E0,0E0,0E0,0E0,0E0,0E0,0E0,0E0,0E0,0E0,0E0,0E0,0E0,0E0,0E0,0E0,0E0,0E0,0E0,0E0,0E0,0E0,0E0,0E0,0E0,0E0,0E0,0E0],"parents":[2147483647,0,0,1,1,2,2,3,3,4,4,5,5,6,6,7,7,8,8,9,9,10,10,11,11,12,12,13,13,14,14,15,15,16,16,17,17,18,18,19,19,20,20,21,21,22,22,23,23,24,24,25,25,26,26,27,27,28,28,29,29,30,30,31,31,32,32,33,33,34,34,35,35,36,36,37,37,38,38,39,39,40,40,41,41,42,42,43,43,44,44,45,45,46,46,47,47,48,48,49,49,50,50,51,51,52,52,53,53,54,54,55,55,56,56,57,57,58,58,59,59,60,60,61,61,62,62],"right_children":[2,4,6,8,10,12,14,16,18,20,22,24,26,28,30,32,34,36,38,40,42,44,46,48,50,52,54,56,58,60,62,64,66,68,70,72,74,76,78,80,82,84,86,88,90,92,94,96,98,100,102,104,106,108,110,112,114,116,118,120,122,124,126,-1,-1,-1,-1,-1,-1,-1,-1,-1,-1,-1,-1,-1,-1,-1,-1,-1,-1,-1,-1,-1,-1,-1,-1,-1,-1,-1,-1,-1,-1,-1,-1,-1,-1,-1,-1,-1,-1,-1,-1,-1,-1,-1,-1,-1,-1,-1,-1,-1,-1,-1,-1,-1,-1,-1,-1,-1,-1,-1,-1,-1,-1,-1,-1],"split_conditions":[1.2E3,2E0,7E0,6.6E2,6E0,2E0,2E0,3E2,2E0,6E2,5E0,2E0,1.38E3,9E0,8E0,1E0,5E0,7.8E2,6E0,1.8E2,5E0,1.8E2,7E0,1.26E3,1.32E3,4E0,4E0,1E0,1E0,5E0,1.26E3,2.4E2,5E0,3E0,4.8E2,1E0,1E0,4E0,1.02E3,8E0,4E0,7E0,7.2E2,6E1,1.02E3,2.4E2,8E0,1E0,1.38E3,1.26E3,1.38E3,1.32E3,6E0,4E0,4E0,8E0,1.38E3,1.26E3,1E1,1.32E3,6E0,4E0,6E0,1.8374957E0,9.223171E-1,5.771849E-1,1.4312557E0,1.4431183E-1,-4.9322513E-1,1.1514897E0,2.3486069E-1,1.9830579E0,1.11100645E1,8.656067E-1,2.2190235E0,5.481856E-1,1.8480624E0,1.2887384E-1,7.892855E-1,4.155319E-1,-4.1315857E-1,-2.7154148E-1,-1.2145073E0,-1.3435018E-1,4.0264633E-1,-1.276669E0,-3.3674842E-1,1.9244983E0,4.374149E-1,-4.821838E-1,-1.1216279E0,-1.1471359E0,-2.591279E0,-3.238352E-1,-1.5408381E0,9.6215E-1,1.5201397E-1,6.075271E0,2.1876283E0,5.071794E-1,8.1926525E-1,2.6093593E0,1.7139813E0,-1.0220528E0,2.0866345E-1,5.9750867E-1,-1.0618439E0,1.9227492E0,3.92463E0,7.2320604E-1,-6.424425E-1,3.6196353E0,1.2085687E0,1.1301695E0,-5.5219024E-1,-1.9871911E0,2.6788568E0,3.3765724E1,2.6008995E0,9.275619E0,4.1682243E0,7.004014E-1,1.7672585E0,5.5351596E0,1.27958E-1,3.9390136E-2,1.8244451E0],"split_indices":[2,3,3,2,0,3,0,2,0,2,3,0,2,3,3,0,0,2,0,2,0,2,3,2,2,3,3,0,0,0,2,2,0,0,2,0,0,0,2,3,3,3,2,2,2,2,3,0,2,2,2,2,0,0,0,3,2,2,3,2,0,0,0,0,0,0,0,0,0,0,0,0,0,0,0,0,0,0,0,0,0,0,0,0,0,0,0,0,0,0,0,0,0,0,0,0,0,0,0,0,0,0,0,0,0,0,0,0,0,0,0,0,0,0,0,0,0,0,0,0,0,0,0,0,0,0,0],"split_type":[0,0,0,0,0,0,0,0,0,0,0,0,0,0,0,0,0,0,0,0,0,0,0,0,0,0,0,0,0,0,0,0,0,0,0,0,0,0,0,0,0,0,0,0,0,0,0,0,0,0,0,0,0,0,0,0,0,0,0,0,0,0,0,0,0,0,0,0,0,0,0,0,0,0,0,0,0,0,0,0,0,0,0,0,0,0,0,0,0,0,0,0,0,0,0,0,0,0,0,0,0,0,0,0,0,0,0,0,0,0,0,0,0,0,0,0,0,0,0,0,0,0,0,0,0,0,0],"sum_hessian":[7.184E3,5.988E3,1.196E3,6.2E2,5.368E3,7.28E2,4.68E2,3.41E2,2.79E2,4.608E3,7.6E2,1.24E2,6.04E2,1.36E2,3.32E2,1.55E2,1.86E2,9E1,1.89E2,2.308E3,2.3E3,2.6E2,5E2,4E1,8.4E1,4.53E2,1.51E2,7.2E1,6.4E1,8.8E1,2.44E2,2.5E1,1.3E2,1.32E2,5.4E1,2E1,7E1,1.44E2,4.5E1,6.93E2,1.615E3,1.92E3,3.8E2,3.9E1,2.21E2,1.6E2,3.4E2,1E1,3E1,4.2E1,4.2E1,1.77E2,2.76E2,5.9E1,9.2E1,3.6E1,3.6E1,3.2E1,3.2E1,4.8E1,4E1,6.1E1,1.83E2,2E1,5E0,8.5E1,4.5E1,8.4E1,4.8E1,2.7E1,2.7E1,1E1,1E1,3.5E1,3.5E1,7.2E1,7.2E1,3E1,1.5E1,4.68E2,2.25E2,3.57E2,1.258E3,1.09E3,8.3E2,7.6E1,3.04E2,1.3E1,2.6E1,1.82E2,3.9E1,3.2E1,1.28E2,1E2,2.4E2,5E0,5E0,2E1,1E1,2.1E1,2.1E1,2.1E1,2.1E1,1.18E2,5.9E1,2.37E2,3.9E1,3.4E1,2.5E1,5.3E1,3.9E1,2E1,1.6E1,2.7E1,9E0,8E0,2.4E1,1.6E1,1.6E1,2.4E1,2.4E1,2E1,2E1,2.5E1,3.6E1,1.47E2,3.6E1],"tree_param":{"num_deleted":"0","num_feature":"4","num_nodes":"127","size_leaf_vector":"1"}},{"base_weights":[4.0569186E-2,-6.88662E-1,3.6891282E0,9.71592E-1,-1.4022999E0,1.4863516E0,7.105194E0,2.419663E0,2.0933661E-1,-2.0321E0,1.1223388E0,5.3958783E0,6.761414E-1,9.715259E0,-7.40975E-1,1.3058156E0,4.07848E0,6.237438E-1,-3.494228E0,1.1263777E0,-2.4847722E0,-3.812894E0,3.206805E0,2.3605742E0,8.345533E0,-5.0977938E-2,2.8434837E0,2.0401196E1,5.2737923E0,-2.6654906E0,6.1713686E0,2.2486653E0,3.5598296E-1,1.14811125E1,2.973146E0,-3.39554E-1,1.8260381E0,-4.2772145E0,-2.3663785E0,5.0510297E0,4.3451297E-1,-2.1805031E0,-4.2950883E0,-2.0327454E0,-5.5625396E0,6.7401714E0,6.8830764E-1,-3.7002866E0,3.5739496E0,1.4262561E1,5.26174E0,-6.0977685E-1,2.184778E0,5.535862E0,-1.1540955E0,5.4842534E0,3.672835E1,1.275585E1,2.5206854E0,-1.0026406E1,3.4063196E-1,8.259532E0,4.4055986E-1,9.5513576E-1,4.3653968E-1,-1.3299412E-3,3.6631867E-1,9.063707E0,4.780863E-1,1.09265E0,3.8079903E-1,-3.6812094E-1,6.115354E-1,1.2809458E0,1.050894E-1,-7.61504E-1,-1.713749E0,-1.4883445E-1,-1.0114466E0,2.7188077E0,2.6445684E-1,-6.3168406E-1,4.43623E-1,-7.9656655E-1,-4.6290424E-1,-3.195076E-1,-1.4486973E0,-8.405922E-1,-3.1977364E-1,-1.1929758E0,-2.9590452E0,3.745293E-1,3.6006768E0,1.0030338E0,-1.2272069E-1,7.2161233E-1,-2.75677E0,3.2727838E0,4.843065E-1,6.577556E0,1.5910019E0,1.1630903E0,2.0420628E0,4.661405E-3,-6.583391E-1,8.777748E-1,-7.461355E-1,1.9761312E0,8.4001875E-1,-1.5926534E0,-1.0452155E-1,2.4285645E0,8.032278E-1,6.085891E-1,2.0987682E1,5.966033E0,1.1499798E0,1.1868789E0,-3.5986662E-1,-1.574596E-1,-8.691352E0,9.2844856E-1,-4.4442457E-1,2.0559168E0,3.5461662E0,-1.4276625E0,1.3535988E0],"categories":[],"categories_nodes":[],"categories_segments":[],"categories_sizes":[],"default_left":[0,0,0,0,0,0,0,0,0,0,0,0,0,0,0,0,0,0,0,0,0,0,0,0,0,0,0,0,0,0,0,0,0,0,0,0,0,0,0,0,0,0,0,0,0,0,0,0,0,0,0,0,0,0,0,0,0,0,0,0,0,0,0,0,0,0,0,0,0,0,0,0,0,0,0,0,0,0,0,0,0,0,0,0,0,0,0,0,0,0,0,0,0,0,0,0,0,0,0,0,0,0,0,0,0,0,0,0,0,0,0,0,0,0,0,0,0,0,0,0,0,0,0,0,0,0,0],"id":3,"left_children":[1,3,5,7,9,11,13,15,17,19,21,23,25,27,29,31,33,35,37,39,41,43,45,47,49,51,53,55,57,59,61,63,65,67,69,71,73,75,77,79,81,83,85,87,89,91,93,95,97,99,101,103,105,107,109,111,113,115,117,119,121,123,125,-1,-1,-1,-1,-1,-1,-1,-1,-1,-1,-1,-1,-1,-1,-1,-1,-1,-1,-1,-1,-1,-1,-1,-1,-1,-1,-1,-1,-1,-1,-1,-1,-1,-1,-1,-1,-1,-1,-1,-1,-1,-1,-1,-1,-1,-1,-1,-1,-1,-1,-1,-1,-1,-1,-1,-1,-1,-1,-1,-1,-1,-1,-1,-1],"loss_changes":[1.911926E4,7.09725E3,8.996663E3,1.9874373E3,6.662866E3,2.305487E3,9.611857E3,1.1420759E3,1.8147592E3,4.7967666E3,8.622719E3,1.0994373E3,9.5357446E2,1.6598762E4,1.5861935E3,3.332395E2,2.0032773E3,1.2317521E3,9.496631E1,1.1409585E3,1.6061992E3,7.6423535E2,5.236739E3,4.7653293E2,1.0745083E3,5.6853174E2,1.6423641E3,2.488434E4,5.117572E3,2.061302E3,3.074997E2,1.3413025E2,5.830986E1,5.8784146E3,2.4387256E2,1.2498168E3,1.704325E3,1.5770764E2,9.419824E1,1.04579E3,9.553531E2,7.5640625E2,7.208877E2,8.997778E1,8.134138E2,7.0650254E3,1.00658966E3,3.907536E2,7.442249E2,1.325397E3,6.561536E1,3.6073196E2,3.223662E2,2.4327075E2,2.0569174E2,3.8139417E2,5.6359594E4,4.1867305E3,9.874335E2,4.8449146E3,3.408092E2,1.4154541E1,1.9082533E2,0E0,0E0,0E0,0E0,0E0,0E0,0E0,0E0,0E0,0E0,0E0,0E0,0E0,0E0,0E0,0E0,0E0,0E0,0E0,0E0,0E0,0E0,0E0,0E0,0E0,0E0,0E0,0E0,0E0,0E0,0E0,0E0,0E0,0E0,0E0,0E0,0E0,0E0,0E0,0E0,0E0,0E0,0E0,0E0,0E0,0E0,0E0,0E0,0E0,0E0,0E0,0E0,0E0,0E0,0E0,0E0,0E0,0E0,0E0,0E0,0E0,0E0,0E0,0E0],"parents":[2147483647,0,0,1,1,2,2,3,3,4,4,5,5,6,6,7,7,8,8,9,9,10,10,11,11,12,12,13,13,14,14,15,15,16,16,17,17,18,18,19,19,20,20,21,21,22,22,23,23,24,24,25,25,26,26,27,27,28,28,29,29,30,30,31,31,32,32,33,33,34,34,35,35,36,36,37,37,38,38,39,39,40,40,41,41,42,42,43,43,44,44,45,45,46,46,47,47,48,48,49,49,50,50,51,51,52,52,53,53,54,54,55,55,56,56,57,57,58,58,59,59,60,60,61,61,62,62],"right_children":[2,4,6,8,10,12,14,16,18,20,22,24,26,28,30,32,34,36,38,40,42,44,46,48,50,52,54,56,58,60,62,64,66,68,70,72,74,76,78,80,82,84,86,88,90,92,94,96,98,100,102,104,106,108,110,112,114,116,118,120,122,124,126,-1,-1,-1,-1,-1,-1,-1,-1,-1,-1,-1,-1,-1,-1,-1,-1,-1,-1,-1,-1,-1,-1,-1,-1,-1,-1,-1,-1,-1,-1,-1,-1,-1,-1,-1,-1,-1,-1,-1,-1,-1,-1,-1,-1,-1,-1,-1,-1,-1,-1,-1,-1,-1,-1,-1,-1,-1,-1,-1,-1,-1,-1,-1,-1],"split_conditions":[1.2E3,4E0,7E0,2E0,9.6E2,2E0,1.38E3,7.2E2,1.08E3,1.2E2,6E0,1.32E3,1.38E3,2E0,1E1,3.6E2,7.8E2,6E2,4E0,5E0,6E0,5E0,8E0,1E0,2E0,6E0,5E0,9E0,8E0,2E0,5E0,3E0,5E0,2E0,1.08E3,5E0,7.8E2,3E0,5E0,6E1,2E0,6E2,2.4E2,4E0,5E0,7E0,2E0,1.26E3,2E0,1.38E3,5E0,5E0,6E0,5E0,1E0,1E0,1E0,5E0,1E1,9E0,4E0,4E0,6E0,9.5513576E-1,4.3653968E-1,-1.3299412E-3,3.6631867E-1,9.063707E0,4.780863E-1,1.09265E0,3.8079903E-1,-3.6812094E-1,6.115354E-1,1.2809458E0,1.050894E-1,-7.61504E-1,-1.713749E0,-1.4883445E-1,-1.0114466E0,2.7188077E0,2.6445684E-1,-6.3168406E-1,4.43623E-1,-7.9656655E-1,-4.6290424E-1,-3.195076E-1,-1.4486973E0,-8.405922E-1,-3.1977364E-1,-1.1929758E0,-2.9590452E0,3.745293E-1,3.6006768E0,1.0030338E0,-1.2272069E-1,7.2161233E-1,-2.75677E0,3.2727838E0,4.843065E-1,6.577556E0,1.5910019E0,1.1630903E0,2.0420628E0,4.661405E-3,-6.583391E-1,8.777748E-1,-7.461355E-1,1.9761312E0,8.4001875E-1,-1.5926534E0,-1.0452155E-1,2.4285645E0,8.032278E-1,6.085891E-1,2.0987682E1,5.966033E0,1.1499798E0,1.1868789E0,-3.5986662E-1,-1.574596E-1,-8.691352E0,9.2844856E-1,-4.4442457E-1,2.0559168E0,3.5461662E0,-1.4276625E0,1.3535988E0],"split_indices":[2,3,3,3,2,3,2,2,2,2,3,2,2,0,3,2,2,2,0,3,0,3,3,0,0,3,3,3,3,0,0,0,0,0,2,0,2,3,0,2,0,2,2,0,0,3,0,2,0,2,0,0,0,0,0,0,0,0,3,3,0,0,0,0,0,0,0,0,0,0,0,0,0,0,0,0,0,0,0,0,0,0,0,0,0,0,0,0,0,0,0,0,0,0,0,0,0,0,0,0,0,0,0,0,0,0,0,0,0,0,0,0,0,0,0,0,0,0,0,0,0,0,0,0,0,0,0],"split_type":[0,0,0,0,0,0,0,0,0,0,0,0,0,0,0,0,0,0,0,0,0,0,0,0,0,0,0,0,0,0,0,0,0,0,0,0,0,0,0,0,0,0,0,0,0,0,0,0,0,0,0,0,0,0,0,0,0,0,0,0,0,0,0,0,0,0,0,0,0,0,0,0,0,0,0,0,0,0,0,0,0,0,0,0,0,0,0,0,0,0,0,0,0,0,0,0,0,0,0,0,0,0,0,0,0,0,0,0,0,0,0,0,0,0,0,0,0,0,0,0,0,0,0,0,0,0,0],"sum_hessian":[7.184E3,5.988E3,1.196E3,1.8E3,4.188E3,7.28E2,4.68E2,6.2E2,1.18E3,3.352E3,8.36E2,1.24E2,6.04E2,3.51E2,1.17E2,3.72E2,2.48E2,1.062E3,1.18E2,4.2E2,2.932E3,2.48E2,5.88E2,6.2E1,6.2E1,4.53E2,1.51E2,1.02E2,2.49E2,9.2E1,2.5E1,1.86E2,1.86E2,3.1E1,2.17E2,5.9E2,4.72E2,6.8E1,5E1,6.2E1,3.58E2,2.512E3,4.2E2,1.24E2,1.24E2,2.44E2,3.44E2,1E1,5.2E1,2E1,4.2E1,3.63E2,9E1,9E1,6.1E1,5.4E1,4.8E1,6.6E1,1.83E2,2.6E1,6.6E1,1.8E1,7E0,8.4E1,1.02E2,1.32E2,5.4E1,1E1,2.1E1,1.55E2,6.2E1,4.3E2,1.6E2,1.77E2,2.95E2,3.2E1,3.6E1,1.8E1,3.2E1,3.1E1,3.1E1,1.04E2,2.54E2,1.438E3,1.074E3,6E1,3.6E2,6.8E1,5.6E1,9.2E1,3.2E1,1.2E2,1.24E2,1E2,2.44E2,5E0,5E0,1E1,4.2E1,1E1,1E1,2.4E1,1.8E1,2.61E2,1.02E2,7.8E1,1.2E1,6.4E1,2.6E1,9E0,5.2E1,2.7E1,2.7E1,2.4E1,2.4E1,3.6E1,3E1,1.32E2,5.1E1,1.8E1,8E0,2.6E1,4E1,1.5E1,3E0,3E0,4E0],"tree_param":{"num_deleted":"0","num_feature":"4","num_nodes":"127","size_leaf_vector":"1"}},{"base_weights":[3.587258E-2,-4.8038113E-1,2.6188364E0,4.502007E-1,-1.1114986E0,1.0592285E0,5.0374618E0,3.8014846E0,2.722412E-1,-1.5967517E0,1.6433696E0,3.8818796E0,4.7428542E-1,8.757859E0,1.2956285E0,1.6141205E0,5.8243475E0,1.628417E0,-1.9556475E-1,-3.372725E-1,-2.286371E0,-3.6223207E0,2.759504E0,1.6797342E0,6.0224075E0,-1.3320997E0,1.0780216E0,1.2538801E1,-5.1290483E0,4.342834E0,1.7846337E-1,3.2447903E0,-2.4089852E-1,9.667868E0,3.0412984E0,6.9845533E-1,2.899174E0,1.9924378E-1,-1.6725475E0,-2.4903946E0,7.7772486E-1,-3.5868568E0,-1.5388697E0,-3.2208076E0,-4.6016645E0,5.732247E0,6.369398E-1,-2.7752147E0,2.572653E0,1.037277E1,3.757756E0,-7.767912E-1,-2.1256635E0,1.5901312E0,-2.530802E-1,5.459614E0,2.6839779E1,-7.333733E0,-2.7270925E0,6.9496875E0,1.0468789E0,-1.5782197E0,4.41167E0,1.511695E0,4.7080895E-1,-8.145582E-1,7.907896E-2,1.8924772E0,3.7626684E0,3.1091577E-1,1.0883327E0,7.437749E-2,5.358779E-1,2.500488E0,6.2638843E-1,-2.272799E-1,4.899769E-1,-2.0965107E-1,-6.3231456E-1,-1.3878685E0,-6.321396E-1,7.8040844E-1,-3.729087E-1,-1.6550335E0,-9.747992E-1,-6.2562716E-1,5.396651E-1,-1.3263011E0,-6.6304076E-1,-2.4777958E0,-7.1837205E-1,3.866539E-1,2.9918568E0,5.550814E-1,-6.926942E-1,5.4120904E-1,-2.0675771E0,2.3802059E0,3.4239352E-1,4.7836766E0,1.1570919E0,1.7388895E0,9.378586E-1,-6.2211883E-1,4.50762E-2,-1.0285351E0,-2.1368459E-1,1.266322E0,2.956092E-1,-9.7237206E-1,1.4239752E-1,2.7206788E0,5.290916E-1,1.5321627E1,-4.9812692E-1,1.4728507E0,-2.9348807E0,-1.5763323E0,-5.5642996E-2,7.280981E-1,3.4786973E0,-8.113087E-1,2.2293375E0,4.432577E-1,-1.1511122E0,2.8845153E0,9.659982E-1],"categories":[],"categories_nodes":[],"categories_segments":[],"categories_sizes":[],"default_left":[0,0,0,0,0,0,0,0,0,0,0,0,0,0,0,0,0,0,0,0,0,0,0,0,0,0,0,0,0,0,0,0,0,0,0,0,0,0,0,0,0,0,0,0,0,0,0,0,0,0,0,0,0,0,0,0,0,0,0,0,0,0,0,0,0,0,0,0,0,0,0,0,0,0,0,0,0,0,0,0,0,0,0,0,0,0,0,0,0,0,0,0,0,0,0,0,0,0,0,0,0,0,0,0,0,0,0,0,0,0,0,0,0,0,0,0,0,0,0,0,0,0,0,0,0,0,0],"id":4,"left_children":[1,3,5,7,9,11,13,15,17,19,21,23,25,27,29,31,33,35,37,39,41,43,45,47,49,51,53,55,57,59,61,63,65,67,69,71,73,75,77,79,81,83,85,87,89,91,93,95,97,99,101,103,105,107,109,111,113,115,117,119,121,123,125,-1,-1,-1,-1,-1,-1,-1,-1,-1,-1,-1,-1,-1,-1,-1,-1,-1,-1,-1,-1,-1,-1,-1,-1,-1,-1,-1,-1,-1,-1,-1,-1,-1,-1,-1,-1,-1,-1,-1,-1,-1,-1,-1,-1,-1,-1,-1,-1,-1,-1,-1,-1,-1,-1,-1,-1,-1,-1,-1,-1,-1,-1,-1,-1],"loss_changes":[9.582202E3,3.5178792E3,4.509875E3,1.442832E3,4.7736924E3,1.2018037E3,6.5176523E3,5.3041675E2,1.4595007E3,2.635311E3,3.154308E3,5.79103E2,6.6123706E2,1.2403129E4,7.992195E2,1.8227707E2,6.444895E2,6.952108E2,9.9806085E2,2.5827168E3,1.9007979E3,2.2141602E1,2.7852974E3,2.5774786E2,5.817012E2,6.5331055E1,3.098805E2,1.8582736E4,2.5007373E2,5.34025E2,1.2934603E3,8.828528E1,3.691554E1,1.7195557E2,4.0921936E1,1.671675E2,1.0805815E3,1.8549791E3,1.5149261E2,2.9067285E2,2.615984E3,4.4782422E2,2.278606E3,7.513934E1,1.8204187E2,3.4542065E3,9.3003613E2,2.1979886E2,3.97664E2,7.010366E2,3.72406E1,1.0972273E2,1.1172073E2,5.1772394E2,2.777126E2,1.6514978E3,4.2212965E4,8.2766943E2,1.660377E2,7.0728796E2,7.146129E2,8.5466223E2,2.8527765E2,0E0,0E0,0E0,0E0,0E0,0E0,0E0,0E0,0E0,0E0,0E0,0E0,0E0,0E0,0E0,0E0,0E0,0E0,0E0,0E0,0E0,0E0,0E0,0E0,0E0,0E0,0E0,0E0,0E0,0E0,0E0,0E0,0E0,0E0,0E0,0E0,0E0,0E0,0E0,0E0,0E0,0E0,0E0,0E0,0E0,0E0,0E0,0E0,0E0,0E0,0E0,0E0,0E0,0E0,0E0,0E0,0E0,0E0,0E0,0E0,0E0,0E0,0E0,0E0],"parents":[2147483647,0,0,1,1,2,2,3,3,4,4,5,5,6,6,7,7,8,8,9,9,10,10,11,11,12,12,13,13,14,14,15,15,16,16,17,17,18,18,19,19,20,20,21,21,22,22,23,23,24,24,25,25,26,26,27,27,28,28,29,29,30,30,31,31,32,32,33,33,34,34,35,35,36,36,37,37,38,38,39,39,40,40,41,41,42,42,43,43,44,44,45,45,46,46,47,47,48,48,49,49,50,50,51,51,52,52,53,53,54,54,55,55,56,56,57,57,58,58,59,59,60,60,61,61,62,62],"right_children":[2,4,6,8,10,12,14,16,18,20,22,24,26,28,30,32,34,36,38,40,42,44,46,48,50,52,54,56,58,60,62,64,66,68,70,72,74,76,78,80,82,84,86,88,90,92,94,96,98,100,102,104,106,108,110,112,114,116,118,120,122,124,126,-1,-1,-1,-1,-1,-1,-1,-1,-1,-1,-1,-1,-1,-1,-1,-1,-1,-1,-1,-1,-1,-1,-1,-1,-1,-1,-1,-1,-1,-1,-1,-1,-1,-1,-1,-1,-1,-1,-1,-1,-1,-1,-1,-1,-1,-1,-1,-1,-1,-1,-1,-1,-1,-1,-1,-1,-1,-1,-1,-1,-1,-1,-1,-1],"split_conditions":[1.2E3,5E0,7E0,6E1,1.02E3,2E0,1.32E3,3E0,2E0,3.6E2,6E0,1.32E3,1.26E3,1E1,8E0,2E0,3E0,7.2E2,9.6E2,7E0,6E2,5E0,8E0,1E0,2E0,5E0,5E0,9E0,1.26E3,4E0,1E1,3E0,1E0,4E0,4E0,5E0,7.8E2,6E2,3E0,1E0,9E0,1E0,1E1,2E0,1.08E3,7E0,1E1,1.26E3,2E0,1.38E3,3E0,3E0,6E0,3E0,3E0,8E0,4E0,1E0,3E0,2E0,6E0,3E0,1E0,1.511695E0,4.7080895E-1,-8.145582E-1,7.907896E-2,1.8924772E0,3.7626684E0,3.1091577E-1,1.0883327E0,7.437749E-2,5.358779E-1,2.500488E0,6.2638843E-1,-2.272799E-1,4.899769E-1,-2.0965107E-1,-6.3231456E-1,-1.3878685E0,-6.321396E-1,7.8040844E-1,-3.729087E-1,-1.6550335E0,-9.747992E-1,-6.2562716E-1,5.396651E-1,-1.3263011E0,-6.6304076E-1,-2.4777958E0,-7.1837205E-1,3.866539E-1,2.9918568E0,5.550814E-1,-6.926942E-1,5.4120904E-1,-2.0675771E0,2.3802059E0,3.4239352E-1,4.7836766E0,1.1570919E0,1.7388895E0,9.378586E-1,-6.2211883E-1,4.50762E-2,-1.0285351E0,-2.1368459E-1,1.266322E0,2.956092E-1,-9.7237206E-1,1.4239752E-1,2.7206788E0,5.290916E-1,1.5321627E1,-4.9812692E-1,1.4728507E0,-2.9348807E0,-1.5763323E0,-5.5642996E-2,7.280981E-1,3.4786973E0,-8.113087E-1,2.2293375E0,4.432577E-1,-1.1511122E0,2.8845153E0,9.659982E-1],"split_indices":[2,3,3,2,2,3,2,3,3,2,3,2,2,3,3,3,0,2,2,3,2,0,3,0,0,3,0,3,2,0,3,0,0,3,0,0,2,2,3,0,3,0,3,0,2,3,3,2,0,2,0,0,3,3,3,3,0,0,0,0,0,0,0,0,0,0,0,0,0,0,0,0,0,0,0,0,0,0,0,0,0,0,0,0,0,0,0,0,0,0,0,0,0,0,0,0,0,0,0,0,0,0,0,0,0,0,0,0,0,0,0,0,0,0,0,0,0,0,0,0,0,0,0,0,0,0,0],"split_type":[0,0,0,0,0,0,0,0,0,0,0,0,0,0,0,0,0,0,0,0,0,0,0,0,0,0,0,0,0,0,0,0,0,0,0,0,0,0,0,0,0,0,0,0,0,0,0,0,0,0,0,0,0,0,0,0,0,0,0,0,0,0,0,0,0,0,0,0,0,0,0,0,0,0,0,0,0,0,0,0,0,0,0,0,0,0,0,0,0,0,0,0,0,0,0,0,0,0,0,0,0,0,0,0,0,0,0,0,0,0,0,0,0,0,0,0,0,0,0,0,0,0,0,0,0,0,0],"sum_hessian":[7.184E3,5.988E3,1.196E3,2.42E3,3.568E3,7.28E2,4.68E2,1.21E2,2.299E3,3.034E3,5.34E2,1.24E2,6.04E2,2.34E2,2.34E2,5.9E1,6.2E1,5.89E2,1.71E3,1.074E3,1.96E3,9.3E1,4.41E2,6.2E1,6.2E1,1.51E2,4.53E2,1.84E2,5E1,6.2E1,1.72E2,3.1E1,2.8E1,2.5E1,3.7E1,3.41E2,2.48E2,1.35E3,3.6E2,3.66E2,7.08E2,7.14E2,1.246E3,6.9E1,2.4E1,1.83E2,2.58E2,1E1,5.2E1,2E1,4.2E1,9E1,6.1E1,3.27E2,1.26E2,1.24E2,6E1,2.5E1,2.5E1,3.4E1,2.8E1,1.22E2,5E1,1.4E1,1.7E1,4E0,2.4E1,1.3E1,1.2E1,9E0,2.8E1,2.42E2,9.9E1,3.1E1,2.17E2,8.1E2,5.4E2,1.12E2,2.48E2,5.4E1,3.12E2,3.72E2,3.36E2,1.04E2,6.1E2,1.071E3,1.75E2,3E1,3.9E1,8E0,1.6E1,9E1,9.3E1,1.83E2,7.5E1,5E0,5E0,1E1,4.2E1,1E1,1E1,8E0,3.4E1,3.7E1,5.3E1,3.1E1,3E1,6E1,2.67E2,2.4E1,1.02E2,6.2E1,6.2E1,3.2E1,2.8E1,4E0,2.1E1,1.2E1,1.3E1,1.8E1,1.6E1,1.8E1,1E1,5.2E1,7E1,8E0,4.2E1],"tree_param":{"num_deleted":"0","num_feature":"4","num_nodes":"127","size_leaf_vector":"1"}},{"base_weights":[3.0352322E-2,-3.9087766E-1,1.6324703E0,6.4652115E-1,-8.367567E-1,3.7644547E-1,3.58231E0,1.3326631E-1,1.3510828E0,-5.7586926E-1,-2.3933055E0,-9.823253E-1,1.2824326E0,4.8073053E0,-9.280482E-1,-3.7668955E-1,1.4557124E0,3.799491E0,5.294323E-1,-8.1329924E-1,6.9311273E-1,-1.1382879E0,-2.9681518E0,-1.2251494E0,2.4789879E-1,3.810246E0,7.5622785E-1,7.782009E0,3.273036E-1,-3.6615949E0,3.163669E0,2.2960644E0,-6.470813E-1,2.548119E0,4.3664435E-1,8.316298E0,2.9825592E-1,1.2162981E0,-7.77342E-1,1.0121732E0,-1.0752102E0,-1.6393496E0,1.6759646E0,-1.5483108E0,1.4821868E0,-3.868167E0,-1.9025644E0,-9.7143316E-1,-2.1843226E0,1.7254397E0,-3.677821E0,6.995604E0,2.207803E0,2.916171E-1,1.6774176E0,1.5804185E1,4.5582204E0,2.7086303E0,-2.0575423E0,-6.3530407E0,-2.2972152E0,9.657118E-1,5.081642E0,3.7693956E-1,1.2189031E0,-5.443748E-2,-4.0264344E-1,1.0737187E0,1.3575535E-1,1.1227756E0,2.4001371E-2,7.322539E-1,3.3457625E0,-1.7989153E-1,5.748335E-1,8.656151E-1,1.4244415E-1,-1.0005229E0,3.250681E-1,6.5380913E-1,-1.8765141E-1,-1.3529283E-1,-3.9768818E-1,-2.6935494E-1,-7.001188E-1,1.082229E0,9.2588484E-2,-2.8772813E-1,-1.386304E0,2.2624733E-1,1.2730415E0,-5.5668783E-1,-1.2773535E0,-1.2477311E0,-2.731027E-1,-5.6097007E-1,-9.246495E-2,-3.2573158E-1,-9.450308E-1,-2.954523E-1,1.4609402E0,-1.4985251E0,-5.8557343E-1,1.1648734E0,2.9013216E0,4.6106303E-1,9.046602E-1,-4.9739495E-1,4.632324E-1,1.3853323E0,-7.128705E-2,1.0004244E0,1.2781434E1,2.7004619E0,6.8567544E-1,2.3591542E0,-3.4806263E-1,-2.360402E0,9.440926E-2,-5.994293E-1,-3.0657866E0,-4.1568004E-2,-1.5703614E0,2.1153114E0,-6.9382143E-1,2.7041926E0,4.0045303E-1],"categories":[],"categories_nodes":[],"categories_segments":[],"categories_sizes":[],"default_left":[0,0,0,0,0,0,0,0,0,0,0,0,0,0,0,0,0,0,0,0,0,0,0,0,0,0,0,0,0,0,0,0,0,0,0,0,0,0,0,0,0,0,0,0,0,0,0,0,0,0,0,0,0,0,0,0,0,0,0,0,0,0,0,0,0,0,0,0,0,0,0,0,0,0,0,0,0,0,0,0,0,0,0,0,0,0,0,0,0,0,0,0,0,0,0,0,0,0,0,0,0,0,0,0,0,0,0,0,0,0,0,0,0,0,0,0,0,0,0,0,0,0,0,0,0,0,0],"id":5,"left_children":[1,3,5,7,9,11,13,15,17,19,21,23,25,27,29,31,33,35,37,39,41,43,45,47,49,51,53,55,57,59,61,63,65,67,69,71,73,75,77,79,81,83,85,87,89,91,93,95,97,99,101,103,105,107,109,111,113,115,117,119,121,123,125,-1,-1,-1,-1,-1,-1,-1,-1,-1,-1,-1,-1,-1,-1,-1,-1,-1,-1,-1,-1,-1,-1,-1,-1,-1,-1,-1,-1,-1,-1,-1,-1,-1,-1,-1,-1,-1,-1,-1,-1,-1,-1,-1,-1,-1,-1,-1,-1,-1,-1,-1,-1,-1,-1,-1,-1,-1,-1,-1,-1,-1,-1,-1,-1],"loss_changes":[4.849508E3,2.6324753E3,3.6624258E3,6.185513E2,1.6148362E3,1.1227269E3,3.2422095E3,6.68868E2,1.4484502E3,1.0279777E3,4.085652E2,1.0933948E2,7.2470905E2,6.141052E3,1.4208815E3,5.189323E2,3.0614062E2,2.8599263E3,4.865355E2,1.374702E3,1.2360938E3,1.9677112E2,3.6762695E2,7.2102234E1,3.6017093E2,4.643645E2,1.938204E2,7.0916797E3,1.0562062E3,2.6448938E2,2.1008939E2,1.1613138E2,2.1044449E2,2.8571973E2,1.694809E2,1.2892515E3,1.5077332E2,4.379782E2,8.936764E2,6.9140826E2,3.922312E2,8.028586E1,9.998114E2,2.7981476E2,4.7057144E1,1.5757397E2,4.0147046E2,1.442221E2,6.3420074E1,3.8829047E2,2.889914E1,2.2061328E2,3.004889E1,7.4244257E2,8.569946E2,2.6258799E4,1.988937E3,1.8639812E3,1.2843707E3,4.00513E2,3.2898935E2,5.1506805E2,3.8577655E2,0E0,0E0,0E0,0E0,0E0,0E0,0E0,0E0,0E0,0E0,0E0,0E0,0E0,0E0,0E0,0E0,0E0,0E0,0E0,0E0,0E0,0E0,0E0,0E0,0E0,0E0,0E0,0E0,0E0,0E0,0E0,0E0,0E0,0E0,0E0,0E0,0E0,0E0,0E0,0E0,0E0,0E0,0E0,0E0,0E0,0E0,0E0,0E0,0E0,0E0,0E0,0E0,0E0,0E0,0E0,0E0,0E0,0E0,0E0,0E0,0E0,0E0,0E0,0E0],"parents":[2147483647,0,0,1,1,2,2,3,3,4,4,5,5,6,6,7,7,8,8,9,9,10,10,11,11,12,12,13,13,14,14,15,15,16,16,17,17,18,18,19,19,20,20,21,21,22,22,23,23,24,24,25,25,26,26,27,27,28,28,29,29,30,30,31,31,32,32,33,33,34,34,35,35,36,36,37,37,38,38,39,39,40,40,41,41,42,42,43,43,44,44,45,45,46,46,47,47,48,48,49,49,50,50,51,51,52,52,53,53,54,54,55,55,56,56,57,57,58,58,59,59,60,60,61,61,62,62],"right_children":[2,4,6,8,10,12,14,16,18,20,22,24,26,28,30,32,34,36,38,40,42,44,46,48,50,52,54,56,58,60,62,64,66,68,70,72,74,76,78,80,82,84,86,88,90,92,94,96,98,100,102,104,106,108,110,112,114,116,118,120,122,124,126,-1,-1,-1,-1,-1,-1,-1,-1,-1,-1,-1,-1,-1,-1,-1,-1,-1,-1,-1,-1,-1,-1,-1,-1,-1,-1,-1,-1,-1,-1,-1,-1,-1,-1,-1,-1,-1,-1,-1,-1,-1,-1,-1,-1,-1,-1,-1,-1,-1,-1,-1,-1,-1,-1,-1,-1,-1,-1,-1,-1,-1,-1,-1,-1],"split_conditions":[1.14E3,4E0,7E0,6.6E2,6E0,1.26E3,1E1,5E0,7.8E2,9.6E2,3.6E2,6E0,2E0,1.32E3,1.32E3,6E1,6E0,3E0,3E0,1.2E2,6E0,1E1,7.8E2,5E0,5E0,2E0,1.38E3,2E0,1.38E3,2E0,3E0,3E0,3E0,3E0,6E1,1E0,3E0,2E0,3E0,8E0,3.6E2,5E0,8E0,9E0,3E2,5E0,6E0,3E0,3E0,3E0,6E0,1E0,5E0,4E0,4E0,9E0,8E0,3E0,2E0,1E0,5E0,1E0,5E0,3.7693956E-1,1.2189031E0,-5.443748E-2,-4.0264344E-1,1.0737187E0,1.3575535E-1,1.1227756E0,2.4001371E-2,7.322539E-1,3.3457625E0,-1.7989153E-1,5.748335E-1,8.656151E-1,1.4244415E-1,-1.0005229E0,3.250681E-1,6.5380913E-1,-1.8765141E-1,-1.3529283E-1,-3.9768818E-1,-2.6935494E-1,-7.001188E-1,1.082229E0,9.2588484E-2,-2.8772813E-1,-1.386304E0,2.2624733E-1,1.2730415E0,-5.5668783E-1,-1.2773535E0,-1.2477311E0,-2.731027E-1,-5.6097007E-1,-9.246495E-2,-3.2573158E-1,-9.450308E-1,-2.954523E-1,1.4609402E0,-1.4985251E0,-5.8557343E-1,1.1648734E0,2.9013216E0,4.6106303E-1,9.046602E-1,-4.9739495E-1,4.632324E-1,1.3853323E0,-7.128705E-2,1.0004244E0,1.2781434E1,2.7004619E0,6.8567544E-1,2.3591542E0,-3.4806263E-1,-2.360402E0,9.440926E-2,-5.994293E-1,-3.0657866E0,-4.1568004E-2,-1.5703614E0,2.1153114E0,-6.9382143E-1,2.7041926E0,4.0045303E-1],"split_indices":[2,3,3,2,0,2,3,0,2,2,2,3,3,2,2,2,0,0,3,2,3,3,2,3,0,0,2,0,2,0,0,3,0,3,2,0,3,0,0,3,2,3,3,3,2,3,3,0,0,0,0,0,0,3,3,3,3,0,0,0,0,0,0,0,0,0,0,0,0,0,0,0,0,0,0,0,0,0,0,0,0,0,0,0,0,0,0,0,0,0,0,0,0,0,0,0,0,0,0,0,0,0,0,0,0,0,0,0,0,0,0,0,0,0,0,0,0,0,0,0,0,0,0,0,0,0,0],"split_type":[0,0,0,0,0,0,0,0,0,0,0,0,0,0,0,0,0,0,0,0,0,0,0,0,0,0,0,0,0,0,0,0,0,0,0,0,0,0,0,0,0,0,0,0,0,0,0,0,0,0,0,0,0,0,0,0,0,0,0,0,0,0,0,0,0,0,0,0,0,0,0,0,0,0,0,0,0,0,0,0,0,0,0,0,0,0,0,0,0,0,0,0,0,0,0,0,0,0,0,0,0,0,0,0,0,0,0,0,0,0,0,0,0,0,0,0,0,0,0,0,0,0,0,0,0,0,0],"sum_hessian":[7.184E3,5.689E3,1.495E3,1.71E3,3.979E3,9.1E2,5.85E2,9.9E2,7.2E2,3.409E3,5.7E2,3.64E2,5.46E2,4.6E2,1.25E2,7.15E2,2.75E2,1.8E2,5.4E2,2.872E3,5.37E2,1.8E2,3.9E2,3.04E2,6E1,9.3E1,4.53E2,2.76E2,1.84E2,7.5E1,5E1,6.5E1,6.5E2,1.32E2,1.43E2,7.8E1,1.02E2,3.54E2,1.86E2,3.6E2,2.512E3,1.59E2,3.78E2,1.56E2,2.4E1,2.1E2,1.8E2,2.42E2,6.2E1,4.4E1,1.6E1,3E1,6.3E1,3.02E2,1.51E2,7.8E1,1.98E2,9.2E1,9.2E1,2.4E1,5.1E1,2.4E1,2.6E1,4.2E1,2.3E1,3.9E2,2.6E2,8.8E1,4.4E1,1.3E1,1.3E2,2.6E1,5.2E1,6.6E1,3.6E1,1.08E2,2.46E2,7.8E1,1.08E2,2.1E2,1.5E2,7.2E2,1.792E3,7.8E1,8.1E1,1.56E2,2.22E2,1.32E2,2.4E1,2E1,4E0,3.5E1,1.75E2,5.4E1,1.26E2,1.02E2,1.4E2,3E1,3.2E1,2.4E1,2E1,8E0,8E0,1.5E1,1.5E1,3.6E1,2.7E1,1.18E2,1.84E2,5.9E1,9.2E1,5.4E1,2.4E1,6.6E1,1.32E2,3.9E1,5.3E1,2.6E1,6.6E1,1.2E1,1.2E1,3E1,2.1E1,8E0,1.6E1,1.2E1,1.4E1],"tree_param":{"num_deleted":"0","num_feature":"4","num_nodes":"127","size_leaf_vector":"1"}},{"base_weights":[2.4717594E-2,-2.4511397E-1,1.3747565E0,2.7094847E-1,-5.951117E-1,8.6372066E-1,3.6277301E0,1.0146432E0,-2.0106696E-2,-1.591859E0,-7.67535E-2,-2.974114E-1,1.2506424E0,1.2671989E1,5.54801E-1,5.654794E-1,2.461846E0,2.6587677E-1,-8.1473726E-1,-2.2677624E0,-1.0362954E0,1.96236E0,-8.090917E-1,-1.7373067E0,7.949194E-1,9.099727E-1,2.2404587E0,2.640317E1,-4.1871877E0,4.0150933E0,-2.1383493E0,-4.3633434E-1,1.7865648E0,3.6511922E0,2.2775476E-1,4.630222E-1,-8.4789145E-1,2.3158839E0,-9.8441803E-1,-1.6220149E0,-3.0650315E0,-4.6991777E-1,-2.617578E0,-1.8251059E0,4.6952305E0,2.4700774E-1,-1.6376599E0,9.4140327E-1,-3.0710568E0,-2.992611E-1,3.964198E0,2.7249587E0,5.321784E-1,4.446648E0,1.0434739E-2,5.1264996E1,-3.5337775E0,1.2632296E0,-5.9054866E0,7.6456056E0,-3.2613144E0,-5.6276574E0,2.7129078E0,2.568621E-1,-3.5267162E-1,1.9831363E0,1.1391584E-1,5.9780395E-1,2.6636176E0,4.048036E-1,-2.7050683E-1,3.5206664E-2,3.232018E-1,2.4589038E-1,-4.9869156E-1,2.2914248E0,2.6086205E-1,-5.294372E-1,1.0198358E-2,-9.3602526E-1,-4.0553185E-1,-1.1393838E0,-5.947442E-1,1.4540868E-1,-3.0456564E-1,-5.921544E-1,-1.0068448E0,-9.549951E-1,6.7080677E-1,2.8703613E0,2.3067306E-1,6.4348066E-1,-2.331666E-1,-7.8638047E-1,2.7949795E-1,6.650301E-2,8.371574E-1,-4.2136762E-1,-2.2674227E0,1.0479224E-1,-4.8191354E-1,-8.1321836E-1,1.8868713E0,1.3778654E0,3.3837736E-1,2.6837295E-1,-1.22390784E-1,2.559712E0,-1.7929175E-1,-4.7209352E-1,3.0004559E0,-1.1132801E1,2.43935E1,-1.5912414E0,3.2033113E-1,-5.229276E0,-7.1276844E-1,5.1527505E0,-6.5713423E-1,2.6240857E0,-2.8280373E0,-5.868035E0,-3.853929E-1,1.8643552E0,-1.30357E-1],"categories":[],"categories_nodes":[],"categories_segments":[],"categories_sizes":[],"default_left":[0,0,0,0,0,0,0,0,0,0,0,0,0,0,0,0,0,0,0,0,0,0,0,0,0,0,0,0,0,0,0,0,0,0,0,0,0,0,0,0,0,0,0,0,0,0,0,0,0,0,0,0,0,0,0,0,0,0,0,0,0,0,0,0,0,0,0,0,0,0,0,0,0,0,0,0,0,0,0,0,0,0,0,0,0,0,0,0,0,0,0,0,0,0,0,0,0,0,0,0,0,0,0,0,0,0,0,0,0,0,0,0,0,0,0,0,0,0,0,0,0,0,0,0,0],"id":6,"left_children":[1,3,5,7,9,11,13,15,17,19,21,23,25,27,29,31,33,35,37,39,41,43,45,47,49,51,53,55,57,59,61,63,65,67,69,71,73,75,77,79,81,83,85,87,89,91,93,95,97,99,101,103,105,107,109,111,113,-1,115,117,119,121,123,-1,-1,-1,-1,-1,-1,-1,-1,-1,-1,-1,-1,-1,-1,-1,-1,-1,-1,-1,-1,-1,-1,-1,-1,-1,-1,-1,-1,-1,-1,-1,-1,-1,-1,-1,-1,-1,-1,-1,-1,-1,-1,-1,-1,-1,-1,-1,-1,-1,-1,-1,-1,-1,-1,-1,-1,-1,-1,-1,-1,-1,-1],"loss_changes":[2.617711E3,1.0818986E3,1.3750327E3,5.240608E2,1.8438809E3,4.393061E2,6.135083E3,4.4127905E2,3.9586096E2,4.5614404E2,3.5093982E3,3.8672733E2,2.4512903E2,1.3074354E4,1.5555543E3,6.381189E2,4.2696277E2,2.816673E2,2.471658E2,2.781875E2,6.006153E2,6.4363247E3,1.5133666E3,3.8160043E2,4.8667313E2,3.736231E2,9.199664E2,2.3254062E4,4.000517E2,1.9533822E3,1.6064552E3,2.7523367E2,1.5923096E3,8.9265027E2,7.34228E1,2.3112157E2,2.634673E2,1.7810385E2,3.481566E2,1.1966388E2,1.8685791E2,2.5868564E2,7.752844E1,1.44676E3,6.899133E3,1.4809855E3,2.4513027E3,4.7292442E1,5.202943E2,8.957542E1,5.7583014E2,2.7523486E2,1.5504628E2,1.9423989E3,1.5034463E3,4.815844E4,1.2785954E2,0E0,8.5354767E2,4.6308745E3,1.9333726E3,3.3028604E3,4.435433E2,0E0,0E0,0E0,0E0,0E0,0E0,0E0,0E0,0E0,0E0,0E0,0E0,0E0,0E0,0E0,0E0,0E0,0E0,0E0,0E0,0E0,0E0,0E0,0E0,0E0,0E0,0E0,0E0,0E0,0E0,0E0,0E0,0E0,0E0,0E0,0E0,0E0,0E0,0E0,0E0,0E0,0E0,0E0,0E0,0E0,0E0,0E0,0E0,0E0,0E0,0E0,0E0,0E0,0E0,0E0,0E0,0E0,0E0,0E0,0E0,0E0,0E0],"parents":[2147483647,0,0,1,1,2,2,3,3,4,4,5,5,6,6,7,7,8,8,9,9,10,10,11,11,12,12,13,13,14,14,15,15,16,16,17,17,18,18,19,19,20,20,21,21,22,22,23,23,24,24,25,25,26,26,27,27,28,28,29,29,30,30,31,31,32,32,33,33,34,34,35,35,36,36,37,37,38,38,39,39,40,40,41,41,42,42,43,43,44,44,45,45,46,46,47,47,48,48,49,49,50,50,51,51,52,52,53,53,54,54,55,55,56,56,58,58,59,59,60,60,61,61,62,62],"right_children":[2,4,6,8,10,12,14,16,18,20,22,24,26,28,30,32,34,36,38,40,42,44,46,48,50,52,54,56,58,60,62,64,66,68,70,72,74,76,78,80,82,84,86,88,90,92,94,96,98,100,102,104,106,108,110,112,114,-1,116,118,120,122,124,-1,-1,-1,-1,-1,-1,-1,-1,-1,-1,-1,-1,-1,-1,-1,-1,-1,-1,-1,-1,-1,-1,-1,-1,-1,-1,-1,-1,-1,-1,-1,-1,-1,-1,-1,-1,-1,-1,-1,-1,-1,-1,-1,-1,-1,-1,-1,-1,-1,-1,-1,-1,-1,-1,-1,-1,-1,-1,-1,-1,-1,-1],"split_conditions":[1.2E3,5E0,9E0,2E0,7E0,1.26E3,1.26E3,4E0,4E0,5.4E2,8E0,3E0,7E0,1E1,3E0,6.6E2,7.8E2,1.02E3,6E1,3E2,5E0,3E0,3E0,1E0,7E0,2E0,8E0,4E0,1E0,1.38E3,1E1,2.4E2,7.8E2,6E2,1E0,3E0,2E0,3E0,5E0,1E0,4E0,7.8E2,9E2,9E2,5E0,4.2E2,1E1,7E0,7E0,5E0,4E0,3E0,5E0,4E0,6E0,1E0,6E0,1.2632296E0,2E0,1E1,1E0,4E0,5E0,2.568621E-1,-3.5267162E-1,1.9831363E0,1.1391584E-1,5.9780395E-1,2.6636176E0,4.048036E-1,-2.7050683E-1,3.5206664E-2,3.232018E-1,2.4589038E-1,-4.9869156E-1,2.2914248E0,2.6086205E-1,-5.294372E-1,1.0198358E-2,-9.3602526E-1,-4.0553185E-1,-1.1393838E0,-5.947442E-1,1.4540868E-1,-3.0456564E-1,-5.921544E-1,-1.0068448E0,-9.549951E-1,6.7080677E-1,2.8703613E0,2.3067306E-1,6.4348066E-1,-2.331666E-1,-7.8638047E-1,2.7949795E-1,6.650301E-2,8.371574E-1,-4.2136762E-1,-2.2674227E0,1.0479224E-1,-4.8191354E-1,-8.1321836E-1,1.8868713E0,1.3778654E0,3.3837736E-1,2.6837295E-1,-1.22390784E-1,2.559712E0,-1.7929175E-1,-4.7209352E-1,3.0004559E0,-1.1132801E1,2.43935E1,-1.5912414E0,3.2033113E-1,-5.229276E0,-7.1276844E-1,5.1527505E0,-6.5713423E-1,2.6240857E0,-2.8280373E0,-5.868035E0,-3.853929E-1,1.8643552E0,-1.30357E-1],"split_indices":[2,3,3,0,3,2,2,3,3,2,3,0,3,3,0,2,2,2,2,2,0,0,0,0,3,3,3,0,0,2,3,2,2,2,0,3,3,0,0,0,0,2,2,2,0,2,3,3,3,3,0,0,0,0,0,0,0,0,0,3,0,0,0,0,0,0,0,0,0,0,0,0,0,0,0,0,0,0,0,0,0,0,0,0,0,0,0,0,0,0,0,0,0,0,0,0,0,0,0,0,0,0,0,0,0,0,0,0,0,0,0,0,0,0,0,0,0,0,0,0,0,0,0,0,0],"split_type":[0,0,0,0,0,0,0,0,0,0,0,0,0,0,0,0,0,0,0,0,0,0,0,0,0,0,0,0,0,0,0,0,0,0,0,0,0,0,0,0,0,0,0,0,0,0,0,0,0,0,0,0,0,0,0,0,0,0,0,0,0,0,0,0,0,0,0,0,0,0,0,0,0,0,0,0,0,0,0,0,0,0,0,0,0,0,0,0,0,0,0,0,0,0,0,0,0,0,0,0,0,0,0,0,0,0,0,0,0,0,0,0,0,0,0,0,0,0,0,0,0,0,0,0,0],"sum_hessian":[7.184E3,5.988E3,1.196E3,2.42E3,3.568E3,9.76E2,2.2E2,6.8E2,1.74E3,1.22E3,2.348E3,2.44E2,7.32E2,5.5E1,1.65E2,5.2E2,1.6E2,1.28E3,4.6E2,5.49E2,6.71E2,6.2E2,1.728E3,1.05E2,1.39E2,5.46E2,1.86E2,3E1,2.5E1,7.2E1,9.3E1,2.86E2,2.34E2,1.04E2,5.6E1,1.088E3,1.92E2,2.3E1,4.37E2,3.05E2,2.44E2,4.95E2,1.76E2,2.6E2,3.6E2,7.6E2,9.68E2,3.5E1,7E1,1.04E2,3.5E1,9.3E1,4.53E2,9.3E1,9.3E1,1.6E1,1.4E1,4E0,2.1E1,4.8E1,2.4E1,5.4E1,3.9E1,1.04E2,1.82E2,5.2E1,1.82E2,8E1,2.4E1,2.8E1,2.8E1,6.97E2,3.91E2,6.3E1,1.29E2,4E0,1.9E1,2.47E2,1.9E2,4.5E1,2.6E2,1.44E2,1E2,1.8E2,3.15E2,9.6E1,8E1,1.95E2,6.5E1,1.6E2,2E2,2.66E2,4.94E2,7E2,2.68E2,2.6E1,9E0,5.2E1,1.8E1,7E1,3.4E1,9E0,2.6E1,4.2E1,5.1E1,3.27E2,1.26E2,5.1E1,4.2E1,8.1E1,1.2E1,4E0,1.2E1,1E1,4E0,4E0,1.7E1,2.4E1,2.4E1,8E0,1.6E1,1.2E1,4.2E1,1.8E1,2.1E1],"tree_param":{"num_deleted":"0","num_feature":"4","num_nodes":"125","size_leaf_vector":"1"}},{"base_weights":[1.9833693E-2,-3.4252083E-1,6.247376E-1,2.5535896E-1,-7.476747E-1,1.722691E-3,1.5929509E0,8.4769994E-1,-1.7659973E-1,-1.5050164E-1,-1.2722942E0,9.5534825E-1,-4.5615685E-1,3.6879795E0,8.3398193E-1,1.8033311E-1,1.8449022E0,-8.770802E-1,5.242165E-1,-2.7878437E0,2.9985666E-1,-2.4659176E0,-8.713685E-1,4.1673613E-1,2.8211472E0,-7.7685046E-1,5.371915E-1,5.3611255E0,1.540699E-1,2.9361103E0,-3.131802E-2,3.3210187E0,-2.1941258E-1,3.0726416E0,-6.165687E-1,-5.158638E-1,-1.9091283E0,1.5048676E0,-4.0408933E-1,-1.8890948E0,-3.9470944E0,-1.1274866E0,1.0352811E0,-3.799425E0,-2.2268922E0,-1.2046181E0,1.1625897E0,1.668814E0,-5.254014E-1,3.8126538E0,3.3259836E-1,-1.0095179E0,1.0754269E0,1.019034E0,-1.1383158E0,1.3652111E0,1.1746835E1,1.4730144E0,-4.9370572E-1,-1.6200002E0,7.1198387E0,-2.3049076E0,5.8834684E-1,5.7442415E-1,2.217764E0,3.5007718E-1,-2.2384055E-1,4.296919E-1,1.4242556E0,5.736579E-1,-4.7584066E-1,-2.7684975E-1,1.8042912E-1,5.895561E-1,-6.5974796E-1,3.456241E-1,1.8316481E0,2.0817275E-1,-4.0889934E-1,-2.1364395E-1,-6.4729375E-1,-9.169082E-1,-1.462678E0,-1.6530369E-1,-5.0934E-1,7.457367E-1,-1.706836E-1,-7.4456435E-1,-1.9330574E0,-4.2223758E-1,-7.1673274E-1,7.860768E-2,-4.352834E-1,7.064672E-1,-3.6642885E-1,1.1678544E0,2.0066677E-1,7.205424E-2,-4.1029045E-1,4.6955907E-1,3.8131235E0,8.4185266E-1,-7.3546576E-1,-5.227695E-1,-1.920677E-1,1.2605086E-1,1.4369229E0,1.4975044E-1,1.2064524E0,-1.123778E0,-3.837677E-2,9.9997765E-1,3.191103E-2,4.185858E0,1.0977534E0,-4.394044E-1,7.0507705E-1,1.4914445E0,-1.481609E0,3.013769E0,-4.6002455E0,-1.0172993E0,1.8016216E0,3.6191154E-1,-1.9424953E-1],"categories":[],"categories_nodes":[],"categories_segments":[],"categories_sizes":[],"default_left":[0,0,0,0,0,0,0,0,0,0,0,0,0,0,0,0,0,0,0,0,0,0,0,0,0,0,0,0,0,0,0,0,0,0,0,0,0,0,0,0,0,0,0,0,0,0,0,0,0,0,0,0,0,0,0,0,0,0,0,0,0,0,0,0,0,0,0,0,0,0,0,0,0,0,0,0,0,0,0,0,0,0,0,0,0,0,0,0,0,0,0,0,0,0,0,0,0,0,0,0,0,0,0,0,0,0,0,0,0,0,0,0,0,0,0,0,0,0,0,0,0,0,0,0,0],"id":7,"left_children":[1,3,5,7,9,11,13,15,17,19,21,23,25,27,29,31,33,35,37,39,41,43,45,47,49,51,53,55,57,59,61,63,65,67,69,71,73,75,77,79,81,83,85,87,89,91,93,95,97,99,101,103,105,107,109,111,113,-1,115,117,119,121,123,-1,-1,-1,-1,-1,-1,-1,-1,-1,-1,-1,-1,-1,-1,-1,-1,-1,-1,-1,-1,-1,-1,-1,-1,-1,-1,-1,-1,-1,-1,-1,-1,-1,-1,-1,-1,-1,-1,-1,-1,-1,-1,-1,-1,-1,-1,-1,-1,-1,-1,-1,-1,-1,-1,-1,-1,-1,-1,-1,-1,-1,-1],"loss_changes":[1.5750919E3,1.0887875E3,1.623842E3,4.648039E2,8.3910876E2,7.160979E2,1.6728496E3,5.0944006E2,5.164042E2,1.4902731E3,6.8026953E2,5.334535E2,3.533823E2,1.6547432E3,1.4097949E3,5.782474E2,9.2966223E2,1.951041E2,4.794491E2,1.8320679E2,1.126449E3,1.0564868E2,7.259853E2,4.8924344E2,2.92354E2,3.62234E2,2.1994656E2,4.8321455E3,2.827775E2,4.3194395E3,7.762311E2,2.835802E2,2.9952847E2,5.5640894E2,2.5556876E2,1.7834418E2,1.5714145E2,4.0846466E2,2.8627628E2,3.1650848E1,5.043506E1,1.1906589E2,1.64889E3,1.686449E2,3.7312744E1,3.3239026E2,4.32089E2,3.9324432E2,1.5314581E2,1.6798785E3,2.4791788E2,2.005622E2,2.2676779E2,3.2733905E2,1.6023824E2,2.919856E2,1.2513789E3,0E0,2.2711722E2,2.4089414E3,7.906842E3,1.0854026E3,3.314992E2,0E0,0E0,0E0,0E0,0E0,0E0,0E0,0E0,0E0,0E0,0E0,0E0,0E0,0E0,0E0,0E0,0E0,0E0,0E0,0E0,0E0,0E0,0E0,0E0,0E0,0E0,0E0,0E0,0E0,0E0,0E0,0E0,0E0,0E0,0E0,0E0,0E0,0E0,0E0,0E0,0E0,0E0,0E0,0E0,0E0,0E0,0E0,0E0,0E0,0E0,0E0,0E0,0E0,0E0,0E0,0E0,0E0,0E0,0E0,0E0,0E0,0E0],"parents":[2147483647,0,0,1,1,2,2,3,3,4,4,5,5,6,6,7,7,8,8,9,9,10,10,11,11,12,12,13,13,14,14,15,15,16,16,17,17,18,18,19,19,20,20,21,21,22,22,23,23,24,24,25,25,26,26,27,27,28,28,29,29,30,30,31,31,32,32,33,33,34,34,35,35,36,36,37,37,38,38,39,39,40,40,41,41,42,42,43,43,44,44,45,45,46,46,47,47,48,48,49,49,50,50,51,51,52,52,53,53,54,54,55,55,56,56,58,58,59,59,60,60,61,61,62,62],"right_children":[2,4,6,8,10,12,14,16,18,20,22,24,26,28,30,32,34,36,38,40,42,44,46,48,50,52,54,56,58,60,62,64,66,68,70,72,74,76,78,80,82,84,86,88,90,92,94,96,98,100,102,104,106,108,110,112,114,-1,116,118,120,122,124,-1,-1,-1,-1,-1,-1,-1,-1,-1,-1,-1,-1,-1,-1,-1,-1,-1,-1,-1,-1,-1,-1,-1,-1,-1,-1,-1,-1,-1,-1,-1,-1,-1,-1,-1,-1,-1,-1,-1,-1,-1,-1,-1,-1,-1,-1,-1,-1,-1,-1,-1,-1,-1,-1,-1,-1,-1,-1,-1,-1,-1,-1],"split_conditions":[9E2,5E0,7E0,3E0,4.2E2,3E0,8E0,5.4E2,5E0,1E0,5.4E2,1.32E3,6E0,5E0,2E0,6E1,7.8E2,4E0,6E0,2.4E2,7E0,1E0,1E1,1.08E3,5E0,1.38E3,1.32E3,3E0,9.6E2,1E0,3E0,4E0,2E0,3E0,2E0,6.6E2,6E1,8.4E2,4.2E2,6E0,8E0,6E0,9E0,9E0,2E0,1E0,7.8E2,2E0,2E0,4E0,2E0,4E0,6E0,1.26E3,2E0,1E0,1.32E3,1.4730144E0,1.32E3,9E0,1.38E3,1.38E3,1.26E3,5.7442415E-1,2.217764E0,3.5007718E-1,-2.2384055E-1,4.296919E-1,1.4242556E0,5.736579E-1,-4.7584066E-1,-2.7684975E-1,1.8042912E-1,5.895561E-1,-6.5974796E-1,3.456241E-1,1.8316481E0,2.0817275E-1,-4.0889934E-1,-2.1364395E-1,-6.4729375E-1,-9.169082E-1,-1.462678E0,-1.6530369E-1,-5.0934E-1,7.457367E-1,-1.706836E-1,-7.4456435E-1,-1.9330574E0,-4.2223758E-1,-7.1673274E-1,7.860768E-2,-4.352834E-1,7.064672E-1,-3.6642885E-1,1.1678544E0,2.0066677E-1,7.205424E-2,-4.1029045E-1,4.6955907E-1,3.8131235E0,8.4185266E-1,-7.3546576E-1,-5.227695E-1,-1.920677E-1,1.2605086E-1,1.4369229E0,1.4975044E-1,1.2064524E0,-1.123778E0,-3.837677E-2,9.9997765E-1,3.191103E-2,4.185858E0,1.0977534E0,-4.394044E-1,7.0507705E-1,1.4914445E0,-1.481609E0,3.013769E0,-4.6002455E0,-1.0172993E0,1.8016216E0,3.6191154E-1,-1.9424953E-1],"split_indices":[2,3,3,0,2,3,3,2,0,0,2,2,3,0,0,2,2,3,0,2,3,0,3,2,0,2,2,0,2,0,0,3,3,3,3,2,2,2,2,3,3,3,3,3,0,0,2,0,3,0,3,3,0,2,0,0,2,0,2,3,2,2,2,0,0,0,0,0,0,0,0,0,0,0,0,0,0,0,0,0,0,0,0,0,0,0,0,0,0,0,0,0,0,0,0,0,0,0,0,0,0,0,0,0,0,0,0,0,0,0,0,0,0,0,0,0,0,0,0,0,0,0,0,0,0],"split_type":[0,0,0,0,0,0,0,0,0,0,0,0,0,0,0,0,0,0,0,0,0,0,0,0,0,0,0,0,0,0,0,0,0,0,0,0,0,0,0,0,0,0,0,0,0,0,0,0,0,0,0,0,0,0,0,0,0,0,0,0,0,0,0,0,0,0,0,0,0,0,0,0,0,0,0,0,0,0,0,0,0,0,0,0,0,0,0,0,0,0,0,0,0,0,0,0,0,0,0,0,0,0,0,0,0,0,0,0,0,0,0,0,0,0,0,0,0,0,0,0,0,0,0,0,0],"sum_hessian":[7.184E3,4.493E3,2.691E3,1.815E3,2.678E3,1.638E3,1.053E3,7.65E2,1.05E3,1.253E3,1.425E3,5.31E2,1.107E3,2.79E2,7.74E2,4.59E2,3.06E2,5.25E2,5.25E2,1.82E2,1.071E3,3.57E2,1.068E3,4.13E2,1.18E2,8.37E2,2.7E2,1.89E2,9E1,2.25E2,5.49E2,5.1E1,4.08E2,2.04E2,1.02E2,3.9E2,1.35E2,2.55E2,2.7E2,1.04E2,7.8E1,3.64E2,7.07E2,5.2E1,3.05E2,9.18E2,1.5E2,1.77E2,2.36E2,8.4E1,3.4E1,7.44E2,9.3E1,2.1E2,6E1,1.17E2,7.2E1,1E1,8E1,1.08E2,1.17E2,1.17E2,4.32E2,3.9E1,1.2E1,1.12E2,2.96E2,1.04E2,1E2,2.8E1,7.4E1,2.86E2,1.04E2,9E0,1.26E2,2.38E2,1.7E1,1.26E2,1.44E2,2E1,8.4E1,4.2E1,3.6E1,1.82E2,1.82E2,3.71E2,3.36E2,3.6E1,1.6E1,5.2E1,2.53E2,1.32E2,7.86E2,1E2,5E1,5.4E1,1.23E2,1.24E2,1.12E2,6.8E1,1.6E1,1.8E1,1.6E1,2.48E2,4.96E2,8E1,1.3E1,1.8E2,3E1,1.6E1,4.4E1,4.5E1,7.2E1,5.6E1,1.6E1,6E1,2E1,3.6E1,7.2E1,1.04E2,1.3E1,1.04E2,1.3E1,2.88E2,1.44E2],"tree_param":{"num_deleted":"0","num_feature":"4","num_nodes":"125","size_leaf_vector":"1"}},{"base_weights":[1.5748322E-2,-1.7280476E-1,7.328949E-1,-3.297721E-2,-1.0055759E0,1.8078177E-1,1.5899634E0,-6.4710903E-1,9.088689E-2,-2.914832E-1,-1.5180303E0,-1.8448754E-1,7.276901E-1,3.472057E0,8.124923E-1,-3.566173E-1,-3.4379885E0,5.694241E-1,-1.1420842E-1,4.8737642E-1,-7.4597025E-1,-2.777703E0,-1.2717482E0,-9.8162025E-1,5.960448E-1,2.011686E0,1.0613862E-1,-6.8800086E-1,7.5917425E0,3.3173795E0,-9.879847E-2,-5.8563983E-1,1.5728457E0,-2.6480517E0,-4.9751353E0,-5.7339318E-2,1.4296557E0,4.9336216E-1,-3.9632538E-1,1.984247E0,-1.03653096E-1,-9.532616E-1,-2.0022078E-1,-1.3618613E0,-7.6946816E0,-1.7140541E0,-3.0746794E-1,8.974211E-2,-1.5418812E0,2.5215375E0,2.6992816E-1,4.775633E0,1.471818E0,6.9407547E-1,-6.9558626E-1,2.2131453E0,-3.9261649E0,-2.1088834E0,1.8290207E1,6.41505E0,-4.527242E-1,-8.96544E-1,3.1199586E0,-2.4521878E-1,4.2740488E-1,-4.6704865E-1,1.6655325E0,-1.1617893E0,1.1307218E0,-1.9405065E0,-1.1675858E0,-1.1304821E-1,3.9585987E-1,1.2838874E0,2.0835172E-1,-8.736352E-2,3.327507E-1,-2.2380981E-1,1.757068E-1,2.1493128E-1,1.0572695E0,2.3241168E-1,-3.7946615E-1,-5.7811614E-2,-4.4655496E-1,-4.5177728E-1,4.8461318E-1,-2.5237268E-1,-7.979584E-1,-3.240372E0,5.763909E-1,-3.0033907E-1,-8.5035807E-1,1.2091865E-1,-9.6676594E-1,-7.2177315E-1,1.7821643E-1,-2.781793E-1,-8.20552E-1,3.2553425E-1,1.533502E0,-3.8726208E-1,1.7469022E-1,3.338088E0,-6.159773E-1,-8.6284906E-2,9.6071804E-1,-2.4419235E-1,6.216681E-1,-8.533381E-1,1.4003684E-1,2.4065773E0,1.7501712E-1,-2.985717E0,6.86106E-1,-9.4134545E-1,5.7271934E-1,1.2334842E1,-1.6220063E0,4.6652603E-1,2.6243505E0,-5.646077E-1,5.036265E-1,-7.1569914E-1,-6.643118E-3,2.57762E0,7.232255E-2],"categories":[],"categories_nodes":[],"categories_segments":[],"categories_sizes":[],"default_left":[0,0,0,0,0,0,0,0,0,0,0,0,0,0,0,0,0,0,0,0,0,0,0,0,0,0,0,0,0,0,0,0,0,0,0,0,0,0,0,0,0,0,0,0,0,0,0,0,0,0,0,0,0,0,0,0,0,0,0,0,0,0,0,0,0,0,0,0,0,0,0,0,0,0,0,0,0,0,0,0,0,0,0,0,0,0,0,0,0,0,0,0,0,0,0,0,0,0,0,0,0,0,0,0,0,0,0,0,0,0,0,0,0,0,0,0,0,0,0,0,0,0,0,0,0,0,0],"id":8,"left_children":[1,3,5,7,9,11,13,15,17,19,21,23,25,27,29,31,33,35,37,39,41,43,45,47,49,51,53,55,57,59,61,63,65,67,69,71,73,75,77,79,81,83,85,87,89,91,93,95,97,99,101,103,105,107,109,111,113,115,117,119,121,123,125,-1,-1,-1,-1,-1,-1,-1,-1,-1,-1,-1,-1,-1,-1,-1,-1,-1,-1,-1,-1,-1,-1,-1,-1,-1,-1,-1,-1,-1,-1,-1,-1,-1,-1,-1,-1,-1,-1,-1,-1,-1,-1,-1,-1,-1,-1,-1,-1,-1,-1,-1,-1,-1,-1,-1,-1,-1,-1,-1,-1,-1,-1,-1,-1],"loss_changes":[9.716838E2,6.625353E2,7.076179E2,3.707425E2,2.9889636E2,1.8212366E2,8.546572E2,6.6194885E2,3.9814417E2,1.2177925E2,1.4413916E2,3.4092188E2,2.910819E2,2.935843E3,9.499229E2,3.2880386E2,8.0322754E1,6.562418E2,4.8698843E2,1.1256191E2,2.4358177E1,5.255689E2,1.700758E2,1.6280408E2,1.732574E2,1.7053897E2,1.169096E2,8.1660645E2,8.963806E3,1.299222E3,7.885283E2,3.1052515E2,9.924106E2,4.3108493E2,1.526123E1,3.1062265E2,1.0718419E3,4.3563754E2,6.6666724E2,6.776175E1,9.481808E1,6.3626495E1,1.4704121E2,3.8983986E1,5.2858685E2,2.1603674E2,2.6434836E2,1.1973662E2,1.2801208E2,1.4327448E2,1.1678897E2,8.4692444E2,3.0844922E2,2.9888672E2,2.6359665E2,4.307968E2,1.5578853E3,1.9616377E2,2.2399355E4,6.779685E2,1.5853229E2,3.2026044E2,9.5889606E2,0E0,0E0,0E0,0E0,0E0,0E0,0E0,0E0,0E0,0E0,0E0,0E0,0E0,0E0,0E0,0E0,0E0,0E0,0E0,0E0,0E0,0E0,0E0,0E0,0E0,0E0,0E0,0E0,0E0,0E0,0E0,0E0,0E0,0E0,0E0,0E0,0E0,0E0,0E0,0E0,0E0,0E0,0E0,0E0,0E0,0E0,0E0,0E0,0E0,0E0,0E0,0E0,0E0,0E0,0E0,0E0,0E0,0E0,0E0,0E0,0E0,0E0,0E0,0E0],"parents":[2147483647,0,0,1,1,2,2,3,3,4,4,5,5,6,6,7,7,8,8,9,9,10,10,11,11,12,12,13,13,14,14,15,15,16,16,17,17,18,18,19,19,20,20,21,21,22,22,23,23,24,24,25,25,26,26,27,27,28,28,29,29,30,30,31,31,32,32,33,33,34,34,35,35,36,36,37,37,38,38,39,39,40,40,41,41,42,42,43,43,44,44,45,45,46,46,47,47,48,48,49,49,50,50,51,51,52,52,53,53,54,54,55,55,56,56,57,57,58,58,59,59,60,60,61,61,62,62],"right_children":[2,4,6,8,10,12,14,16,18,20,22,24,26,28,30,32,34,36,38,40,42,44,46,48,50,52,54,56,58,60,62,64,66,68,70,72,74,76,78,80,82,84,86,88,90,92,94,96,98,100,102,104,106,108,110,112,114,116,118,120,122,124,126,-1,-1,-1,-1,-1,-1,-1,-1,-1,-1,-1,-1,-1,-1,-1,-1,-1,-1,-1,-1,-1,-1,-1,-1,-1,-1,-1,-1,-1,-1,-1,-1,-1,-1,-1,-1,-1,-1,-1,-1,-1,-1,-1,-1,-1,-1,-1,-1,-1,-1,-1,-1,-1,-1,-1,-1,-1,-1,-1,-1,-1,-1,-1,-1],"split_conditions":[1.14E3,6E0,7E0,1E0,5E0,1.32E3,2E0,1E1,4E0,4.2E2,6E0,4E0,3E0,1E0,8E0,1.02E3,7.8E2,6.6E2,3.6E2,2E0,4E0,9E2,7.8E2,2E0,1E0,1E0,4E0,9E0,9E0,5E0,6E0,9E0,6E0,6.6E2,9E2,5E0,2E0,7E0,9E0,2.4E2,2.4E2,7.2E2,8.4E2,6.6E2,1.08E3,4.8E2,1E1,1E0,1.26E3,1.26E3,2E0,1.38E3,4E0,2E0,5E0,1.2E3,1E1,1.38E3,1E1,3E0,1.32E3,9E0,9E0,-2.4521878E-1,4.2740488E-1,-4.6704865E-1,1.6655325E0,-1.1617893E0,1.1307218E0,-1.9405065E0,-1.1675858E0,-1.1304821E-1,3.9585987E-1,1.2838874E0,2.0835172E-1,-8.736352E-2,3.327507E-1,-2.2380981E-1,1.757068E-1,2.1493128E-1,1.0572695E0,2.3241168E-1,-3.7946615E-1,-5.7811614E-2,-4.4655496E-1,-4.5177728E-1,4.8461318E-1,-2.5237268E-1,-7.979584E-1,-3.240372E0,5.763909E-1,-3.0033907E-1,-8.5035807E-1,1.2091865E-1,-9.6676594E-1,-7.2177315E-1,1.7821643E-1,-2.781793E-1,-8.20552E-1,3.2553425E-1,1.533502E0,-3.8726208E-1,1.7469022E-1,3.338088E0,-6.159773E-1,-8.6284906E-2,9.6071804E-1,-2.4419235E-1,6.216681E-1,-8.533381E-1,1.4003684E-1,2.4065773E0,1.7501712E-1,-2.985717E0,6.86106E-1,-9.4134545E-1,5.7271934E-1,1.2334842E1,-1.6220063E0,4.6652603E-1,2.6243505E0,-5.646077E-1,5.036265E-1,-7.1569914E-1,-6.643118E-3,2.57762E0,7.232255E-2],"split_indices":[2,0,3,0,3,2,0,3,3,2,3,3,3,0,3,2,2,2,2,3,3,2,2,3,0,0,0,3,3,0,0,3,3,2,2,0,0,3,3,2,2,2,2,2,2,2,3,0,2,2,0,2,0,0,0,2,3,2,3,0,2,3,3,0,0,0,0,0,0,0,0,0,0,0,0,0,0,0,0,0,0,0,0,0,0,0,0,0,0,0,0,0,0,0,0,0,0,0,0,0,0,0,0,0,0,0,0,0,0,0,0,0,0,0,0,0,0,0,0,0,0,0,0,0,0,0,0],"split_type":[0,0,0,0,0,0,0,0,0,0,0,0,0,0,0,0,0,0,0,0,0,0,0,0,0,0,0,0,0,0,0,0,0,0,0,0,0,0,0,0,0,0,0,0,0,0,0,0,0,0,0,0,0,0,0,0,0,0,0,0,0,0,0,0,0,0,0,0,0,0,0,0,0,0,0,0,0,0,0,0,0,0,0,0,0,0,0,0,0,0,0,0,0,0,0,0,0,0,0,0,0,0,0,0,0,0,0,0,0,0,0,0,0,0,0,0,0,0,0,0,0,0,0,0,0,0,0],"sum_hessian":[7.184E3,5.689E3,1.495E3,4.872E3,8.17E2,9.1E2,5.85E2,8.17E2,4.055E3,3.42E2,4.75E2,5.46E2,3.64E2,1.7E2,4.15E2,7.41E2,7.6E1,1.216E3,2.839E3,1.26E2,2.16E2,7.6E1,3.99E2,2.7E2,2.76E2,1.18E2,2.46E2,8.5E1,8.5E1,1.1E2,3.05E2,6.63E2,7.8E1,5.2E1,2.4E1,7.04E2,5.12E2,9E2,1.939E3,3.5E1,9.1E1,1.56E2,6E1,6E1,1.6E1,2.73E2,1.26E2,9.3E1,1.77E2,3.9E1,2.37E2,1.8E1,1E2,1.42E2,1.04E2,4.5E1,4E1,4.5E1,4E1,6E1,5E1,2.45E2,6E1,5.95E2,6.8E1,4.4E1,3.4E1,4.4E1,8E0,8E0,1.6E1,5.72E2,1.32E2,1.04E2,4.08E2,3.96E2,5.04E2,1.43E3,5.09E2,2E1,1.5E1,5.2E1,3.9E1,6.5E1,9.1E1,3.5E1,2.5E1,4.4E1,1.6E1,1.2E1,4E0,1.68E2,1.05E2,1.02E2,2.4E1,1.5E1,7.8E1,1.18E2,5.9E1,2.6E1,1.3E1,3.9E1,1.98E2,9E0,9E0,5E1,5E1,6.8E1,7.4E1,3.6E1,6.8E1,9E0,3.6E1,2E1,2E1,3.6E1,9E0,2E1,2E1,2E1,4E1,3E1,2E1,9E1,1.55E2,2E1,4E1],"tree_param":{"num_deleted":"0","num_feature":"4","num_nodes":"127","size_leaf_vector":"1"}},{"base_weights":[1.297318E-2,-1.09721504E-1,6.268458E-1,8.0054305E-2,-5.773473E-1,2.9622543E-1,2.0856204E0,-9.620561E-2,1.1133591E0,1.4435865E-1,-1.1435401E0,-3.2143816E-1,5.0227094E-1,8.1194515E0,3.754711E-2,1.545924E-1,-5.9340936E-1,-1.2973839E0,2.8532221E0,1.5997003E0,-6.409355E-1,-1.8229154E0,6.311276E-1,-9.953407E-1,6.0178876E-1,8.4946615E-1,2.5777325E-2,1.7380598E1,-3.2349718E0,1.8447647E0,-1.3663298E0,1.3254863E0,9.241689E-2,-9.759713E-1,-2.7941757E-1,-2.217092E0,8.495021E-1,5.531954E0,6.933762E-1,-4.2430636E-1,6.599513E0,-2.44614E0,4.1655135E-1,-2.3945488E-1,-2.3695247E0,-2.2711978E0,1.6243083E0,-1.0049136E-2,-3.7911668E0,-4.108355E-1,3.5048594E0,1.2585893E0,-1.7539415E0,-3.4728578E-1,2.787764E0,4.9529896E1,4.044761E0,1.1509755E0,-4.6950994E0,3.9041357E0,-2.265393E0,-6.931617E0,3.2959682E-1,6.0505646E-1,-1.1464193E-1,1.5682045E-1,-1.6806787E-2,-4.0288445E-1,-1.331762E-1,1.0578433E-2,-3.4789538E-1,-4.0598437E-1,-1.293102E0,-1.2996139E-1,1.091243E0,4.373908E0,1.3299099E0,9.6876824E-1,1.2988124E-2,-2.4553436E-1,3.398462E-1,6.559468E0,-7.7093494E-1,4.1930482E-1,-1.1947806E0,5.9598565E-1,-3.4685075E-1,-8.1519085E-1,8.559491E-1,-8.733576E-1,-3.4207854E-1,-1.1030394E0,-1.2887947E-1,9.760727E-1,-2.4887659E-1,-1.0133114E-1,2.7448562E-1,8.785313E-2,-2.302693E0,9.633768E-2,-5.661326E-1,2.966526E0,8.898029E-2,2.1316245E-1,1.3694489E0,-7.30103E-1,-1.0222827E-1,2.3845184E-1,-5.5918497E-1,1.6465027E0,-7.860297E-1,-7.3887725E0,3.413492E1,-1.3522455E1,5.027428E0,-4.3082733E0,-5.24794E-1,2.7224536E0,-4.2682174E-1,-2.4985783E0,2.8317094E0,-4.187409E0,8.6876434E-1,-2.202084E-1,5.382946E-1],"categories":[],"categories_nodes":[],"categories_segments":[],"categories_sizes":[],"default_left":[0,0,0,0,0,0,0,0,0,0,0,0,0,0,0,0,0,0,0,0,0,0,0,0,0,0,0,0,0,0,0,0,0,0,0,0,0,0,0,0,0,0,0,0,0,0,0,0,0,0,0,0,0,0,0,0,0,0,0,0,0,0,0,0,0,0,0,0,0,0,0,0,0,0,0,0,0,0,0,0,0,0,0,0,0,0,0,0,0,0,0,0,0,0,0,0,0,0,0,0,0,0,0,0,0,0,0,0,0,0,0,0,0,0,0,0,0,0,0,0,0,0,0,0,0],"id":9,"left_children":[1,3,5,7,9,11,13,15,17,19,21,23,25,27,29,31,33,35,37,39,41,43,45,47,49,51,53,55,57,59,61,63,65,67,69,71,73,75,77,79,81,83,85,87,89,91,93,95,97,99,101,103,105,107,109,111,113,-1,115,117,119,121,123,-1,-1,-1,-1,-1,-1,-1,-1,-1,-1,-1,-1,-1,-1,-1,-1,-1,-1,-1,-1,-1,-1,-1,-1,-1,-1,-1,-1,-1,-1,-1,-1,-1,-1,-1,-1,-1,-1,-1,-1,-1,-1,-1,-1,-1,-1,-1,-1,-1,-1,-1,-1,-1,-1,-1,-1,-1,-1,-1,-1,-1,-1],"loss_changes":[5.4123505E2,5.315345E2,5.76696E2,7.7616394E2,7.066772E2,1.2450112E2,2.7307534E3,4.5411606E2,2.6084011E3,8.7075024E2,1.1694403E3,1.5302942E2,1.21242905E2,5.9449053E3,4.23681E2,1.7612852E2,1.4639542E2,5.1723016E2,2.084783E3,2.7047478E3,9.4596405E2,6.061719E2,7.7909076E2,3.9112982E2,3.0717078E2,4.5381595E2,3.203907E2,1.3090533E4,2.8647293E2,6.2674115E2,8.894866E2,1.4480377E2,1.469445E2,1.0679144E2,1.861789E2,3.2506213E2,2.840919E2,1.5361504E3,3.3121112E2,1.1814928E2,1.0834091E4,1.0863435E3,7.7518054E2,1.3947628E3,3.435891E2,1.7703052E2,8.0630804E2,3.2442158E1,5.8922455E2,8.4890816E1,5.500301E2,6.617522E2,5.4884827E1,4.7610995E2,5.547411E2,4.568702E4,1.5118268E4,0E0,6.012934E2,1.3625535E3,1.8527706E3,1.559566E3,1.1504456E2,0E0,0E0,0E0,0E0,0E0,0E0,0E0,0E0,0E0,0E0,0E0,0E0,0E0,0E0,0E0,0E0,0E0,0E0,0E0,0E0,0E0,0E0,0E0,0E0,0E0,0E0,0E0,0E0,0E0,0E0,0E0,0E0,0E0,0E0,0E0,0E0,0E0,0E0,0E0,0E0,0E0,0E0,0E0,0E0,0E0,0E0,0E0,0E0,0E0,0E0,0E0,0E0,0E0,0E0,0E0,0E0,0E0,0E0,0E0,0E0,0E0,0E0],"parents":[2147483647,0,0,1,1,2,2,3,3,4,4,5,5,6,6,7,7,8,8,9,9,10,10,11,11,12,12,13,13,14,14,15,15,16,16,17,17,18,18,19,19,20,20,21,21,22,22,23,23,24,24,25,25,26,26,27,27,28,28,29,29,30,30,31,31,32,32,33,33,34,34,35,35,36,36,37,37,38,38,39,39,40,40,41,41,42,42,43,43,44,44,45,45,46,46,47,47,48,48,49,49,50,50,51,51,52,52,53,53,54,54,55,55,56,56,58,58,59,59,60,60,61,61,62,62],"right_children":[2,4,6,8,10,12,14,16,18,20,22,24,26,28,30,32,34,36,38,40,42,44,46,48,50,52,54,56,58,60,62,64,66,68,70,72,74,76,78,80,82,84,86,88,90,92,94,96,98,100,102,104,106,108,110,112,114,-1,116,118,120,122,124,-1,-1,-1,-1,-1,-1,-1,-1,-1,-1,-1,-1,-1,-1,-1,-1,-1,-1,-1,-1,-1,-1,-1,-1,-1,-1,-1,-1,-1,-1,-1,-1,-1,-1,-1,-1,-1,-1,-1,-1,-1,-1,-1,-1,-1,-1,-1,-1,-1,-1,-1,-1,-1,-1,-1,-1,-1,-1,-1,-1,-1,-1],"split_conditions":[1.2E3,8E0,9E0,7E0,3E0,1.26E3,1.26E3,5E0,3E0,4.2E2,1E1,4E0,4E0,1E1,3E0,6E1,5.4E2,8.4E2,5E0,3E2,9E0,4E0,4E0,7E0,7E0,8E0,8E0,2E0,1E0,1.38E3,4E0,5E0,2E0,4E0,5E0,6E2,2E0,1.2E2,2.4E2,2.4E2,9E0,1E0,1E1,9E0,6E0,6E2,6E0,3E0,2E0,5E0,5E0,7E0,1.38E3,5E0,1.38E3,1E0,3E0,1.1509755E0,2E0,1E1,2E0,1E1,1E1,6.0505646E-1,-1.1464193E-1,1.5682045E-1,-1.6806787E-2,-4.0288445E-1,-1.331762E-1,1.0578433E-2,-3.4789538E-1,-4.0598437E-1,-1.293102E0,-1.2996139E-1,1.091243E0,4.373908E0,1.3299099E0,9.6876824E-1,1.2988124E-2,-2.4553436E-1,3.398462E-1,6.559468E0,-7.7093494E-1,4.1930482E-1,-1.1947806E0,5.9598565E-1,-3.4685075E-1,-8.1519085E-1,8.559491E-1,-8.733576E-1,-3.4207854E-1,-1.1030394E0,-1.2887947E-1,9.760727E-1,-2.4887659E-1,-1.0133114E-1,2.7448562E-1,8.785313E-2,-2.302693E0,9.633768E-2,-5.661326E-1,2.966526E0,8.898029E-2,2.1316245E-1,1.3694489E0,-7.30103E-1,-1.0222827E-1,2.3845184E-1,-5.5918497E-1,1.6465027E0,-7.860297E-1,-7.3887725E0,3.413492E1,-1.3522455E1,5.027428E0,-4.3082733E0,-5.24794E-1,2.7224536E0,-4.2682174E-1,-2.4985783E0,2.8317094E0,-4.187409E0,8.6876434E-1,-2.202084E-1,5.382946E-1],"split_indices":[2,3,3,3,0,2,2,3,0,2,3,0,0,3,0,2,2,2,0,2,3,0,0,3,3,3,3,0,0,2,0,0,3,0,0,2,0,2,2,2,3,0,3,3,0,2,0,0,0,3,0,3,2,3,2,0,0,0,0,3,0,3,3,0,0,0,0,0,0,0,0,0,0,0,0,0,0,0,0,0,0,0,0,0,0,0,0,0,0,0,0,0,0,0,0,0,0,0,0,0,0,0,0,0,0,0,0,0,0,0,0,0,0,0,0,0,0,0,0,0,0,0,0,0,0],"split_type":[0,0,0,0,0,0,0,0,0,0,0,0,0,0,0,0,0,0,0,0,0,0,0,0,0,0,0,0,0,0,0,0,0,0,0,0,0,0,0,0,0,0,0,0,0,0,0,0,0,0,0,0,0,0,0,0,0,0,0,0,0,0,0,0,0,0,0,0,0,0,0,0,0,0,0,0,0,0,0,0,0,0,0,0,0,0,0,0,0,0,0,0,0,0,0,0,0,0,0,0,0,0,0,0,0,0,0,0,0,0,0,0,0,0,0,0,0,0,0,0,0,0,0,0,0],"sum_hessian":[7.184E3,5.988E3,1.196E3,4.26E3,1.728E3,9.76E2,2.2E2,3.64E3,6.2E2,7.6E2,9.68E2,2.44E2,7.32E2,5.5E1,1.65E2,2.42E3,1.22E3,2.6E2,3.6E2,2.66E2,4.94E2,7E2,2.68E2,1.41E2,1.03E2,4.23E2,3.09E2,3E1,2.5E1,7.2E1,9.3E1,1.21E2,2.299E3,5.49E2,6.71E2,1.82E2,7.8E1,1.6E2,2E2,1.9E2,7.6E1,1.82E2,3.12E2,1.8E2,5.2E2,6.8E1,2E2,1.05E2,3.6E1,7.7E1,2.6E1,3.66E2,5.7E1,2.73E2,3.6E1,8E0,2.2E1,4E0,2.1E1,4.8E1,2.4E1,2.1E1,7.2E1,8.6E1,3.5E1,5.89E2,1.71E3,3.24E2,2.25E2,4.95E2,1.76E2,1.3E2,5.2E1,5.4E1,2.4E1,1.6E1,1.44E2,4E1,1.6E2,1.52E2,3.8E1,2.8E1,4.8E1,5.2E1,1.3E2,1.56E2,1.56E2,1E2,8E1,3.6E2,1.6E2,3.8E1,3E1,1.2E2,8E1,7.8E1,2.7E1,1.8E1,1.8E1,5.2E1,2.5E1,8E0,1.8E1,3.15E2,5.1E1,3.8E1,1.9E1,1.56E2,1.17E2,2.4E1,1.2E1,4E0,4E0,4E0,1.8E1,4E0,1.7E1,2.4E1,2.4E1,1.6E1,8E0,1.2E1,9E0,4.2E1,3E1],"tree_param":{"num_deleted":"0","num_feature":"4","num_nodes":"125","size_leaf_vector":"1"}},{"base_weights":[1.2618381E-2,-2.4940975E-1,2.0029685E-1,1.06846906E-1,-7.8432953E-1,4.412504E-1,-4.062003E-1,-6.039231E-1,2.2608384E-1,-5.06197E-1,-1.9993575E0,1.0452935E-1,1.949225E0,-1.7380418E-1,-1.4031818E0,9.029166E-1,-1.5886401E0,6.7857784E-1,-1.9253965E-3,-6.23205E-1,2.9631543E-1,-3.914695E0,-1.6579674E0,4.3640026E-1,-2.0832653E0,-6.646509E-2,2.46836E0,-1.3374108E0,2.1509605E-2,-1.6186844E0,1.3287725E0,2.8562408E-2,1.8659078E0,-7.2280383E-1,-3.2740016E0,7.479628E-2,3.6619258E0,5.0001156E-1,-1.2491045E0,-8.110377E-1,-5.8550093E-2,3.936572E0,-1.2203791E0,-5.10223E-1,-1.366539E0,-1.3935183E0,-2.1491532E0,3.674142E-3,1.0811832E0,6.7438585E-1,-2.664175E0,4.3125916E0,-2.525025E0,2.9434729E0,-3.6070774E0,-2.5316003E-1,-3.0919845E0,-3.722886E-1,6.718999E-1,-7.5051016E-1,-2.9813485E0,-1.0479692E0,3.5578728E0,6.2966704E-1,-7.6193595E-1,1.4780931E0,3.4453678E-1,-3.5102758E-1,-5.6321453E-2,-6.155937E-1,-1.3681765E0,3.529785E-1,-1.7009977E-2,-3.362255E-1,4.2994823E0,1.8690847E-2,9.015667E-1,-8.397733E-1,-1.24606796E-1,1.7128423E-2,-2.8762215E-1,-2.1380176E-1,6.2070545E-2,-5.4070115E-1,2.5184698E0,-7.341471E-1,-2.3430954E-1,-4.73456E-1,-2.3878978E-1,-7.627551E-1,-5.0719905E-1,4.9352857E-1,-1.3355437E-1,1.5377645E-1,1.4430761E0,-9.2460275E-1,1.0499111E0,-9.300862E-1,-3.1176418E-1,-2.6060578E-1,3.5035307E0,-1.3065999E0,3.2923276E0,5.4475915E-1,1.99286E0,-6.679289E0,1.0619023E0,-3.448879E-1,1.9471797E-1,-1.0763632E0,-7.4447227E-1,3.6337718E-3,-6.1104935E-1,2.7287182E-1,-5.638076E-1,-5.424812E-1,3.040047E-1,-1.3306592E0,-4.3633538E-1,5.020637E-1,-1.4604747E0,1.2891079E0,6.321435E-1],"categories":[],"categories_nodes":[],"categories_segments":[],"categories_sizes":[],"default_left":[0,0,0,0,0,0,0,0,0,0,0,0,0,0,0,0,0,0,0,0,0,0,0,0,0,0,0,0,0,0,0,0,0,0,0,0,0,0,0,0,0,0,0,0,0,0,0,0,0,0,0,0,0,0,0,0,0,0,0,0,0,0,0,0,0,0,0,0,0,0,0,0,0,0,0,0,0,0,0,0,0,0,0,0,0,0,0,0,0,0,0,0,0,0,0,0,0,0,0,0,0,0,0,0,0,0,0,0,0,0,0,0,0,0,0,0,0,0,0,0,0,0,0],"id":10,"left_children":[1,3,5,7,9,11,13,15,17,19,21,23,25,27,29,31,33,35,37,39,41,43,45,47,49,51,53,55,57,59,61,63,65,67,69,71,73,75,77,79,81,83,85,-1,-1,87,89,91,93,95,97,99,101,103,105,107,109,111,113,115,117,119,121,-1,-1,-1,-1,-1,-1,-1,-1,-1,-1,-1,-1,-1,-1,-1,-1,-1,-1,-1,-1,-1,-1,-1,-1,-1,-1,-1,-1,-1,-1,-1,-1,-1,-1,-1,-1,-1,-1,-1,-1,-1,-1,-1,-1,-1,-1,-1,-1,-1,-1,-1,-1,-1,-1,-1,-1,-1,-1,-1,-1],"loss_changes":[3.53387E2,5.715995E2,6.1205756E2,1.5277135E2,4.0417664E2,1.5215732E3,2.7570444E2,3.8574136E2,1.5919696E2,9.1925354E1,1.393241E2,1.7804956E3,5.725532E2,2.1979732E2,1.346181E2,8.667222E1,2.2673535E2,9.309934E2,6.4353204E2,9.042221E1,6.949487E2,3.9043304E1,2.181482E1,5.940177E2,5.192252E2,1.227467E3,1.2662534E3,2.636505E2,2.1257574E2,2.4501569E2,9.379447E1,2.9778354E2,1.0195392E2,2.490982E1,7.397034E1,6.2511005E1,4.4556416E3,8.035857E2,3.8010315E2,8.211911E1,3.7305992E1,9.618102E2,4.605803E1,0E0,0E0,1.2758148E1,7.4244385E0,9.401021E2,1.8104172E3,6.1572766E2,1.8599182E2,1.5748889E3,1.8514926E3,1.6732109E3,4.345641E3,7.111263E1,7.1393433E0,3.308282E2,1.9150157E2,2.4251291E2,1.7339996E2,1.01719765E2,5.9632874E-1,0E0,0E0,0E0,0E0,0E0,0E0,0E0,0E0,0E0,0E0,0E0,0E0,0E0,0E0,0E0,0E0,0E0,0E0,0E0,0E0,0E0,0E0,0E0,0E0,0E0,0E0,0E0,0E0,0E0,0E0,0E0,0E0,0E0,0E0,0E0,0E0,0E0,0E0,0E0,0E0,0E0,0E0,0E0,0E0,0E0,0E0,0E0,0E0,0E0,0E0,0E0,0E0,0E0,0E0,0E0,0E0,0E0,0E0,0E0,0E0],"parents":[2147483647,0,0,1,1,2,2,3,3,4,4,5,5,6,6,7,7,8,8,9,9,10,10,11,11,12,12,13,13,14,14,15,15,16,16,17,17,18,18,19,19,20,20,21,21,22,22,23,23,24,24,25,25,26,26,27,27,28,28,29,29,30,30,31,31,32,32,33,33,34,34,35,35,36,36,37,37,38,38,39,39,40,40,41,41,42,42,45,45,46,46,47,47,48,48,49,49,50,50,51,51,52,52,53,53,54,54,55,55,56,56,57,57,58,58,59,59,60,60,61,61,62,62],"right_children":[2,4,6,8,10,12,14,16,18,20,22,24,26,28,30,32,34,36,38,40,42,44,46,48,50,52,54,56,58,60,62,64,66,68,70,72,74,76,78,80,82,84,86,-1,-1,88,90,92,94,96,98,100,102,104,106,108,110,112,114,116,118,120,122,-1,-1,-1,-1,-1,-1,-1,-1,-1,-1,-1,-1,-1,-1,-1,-1,-1,-1,-1,-1,-1,-1,-1,-1,-1,-1,-1,-1,-1,-1,-1,-1,-1,-1,-1,-1,-1,-1,-1,-1,-1,-1,-1,-1,-1,-1,-1,-1,-1,-1,-1,-1,-1,-1,-1,-1,-1,-1,-1,-1],"split_conditions":[6E2,3.6E2,5E0,1E0,9E0,9E0,9E0,5E0,3E0,8E0,1E0,8E0,1E0,7.2E2,1.38E3,3E0,2.4E2,3E2,8E0,5.4E2,2E0,4.2E2,5E0,3E0,1E0,9E2,1.38E3,6E0,6E0,1.08E3,6E0,2E0,6E1,8E0,8E0,2E0,8E0,7E0,9E0,2E0,2E0,1E0,4.2E2,-5.10223E-1,-1.366539E0,5.4E2,6E0,7.8E2,7E0,9.6E2,1.26E3,7.8E2,1.38E3,1.2E3,2E0,6.6E2,6E0,5E0,1.38E3,9E2,6E0,1E1,1E1,6.2966704E-1,-7.6193595E-1,1.4780931E0,3.4453678E-1,-3.5102758E-1,-5.6321453E-2,-6.155937E-1,-1.3681765E0,3.529785E-1,-1.7009977E-2,-3.362255E-1,4.2994823E0,1.8690847E-2,9.015667E-1,-8.397733E-1,-1.24606796E-1,1.7128423E-2,-2.8762215E-1,-2.1380176E-1,6.2070545E-2,-5.4070115E-1,2.5184698E0,-7.341471E-1,-2.3430954E-1,-4.73456E-1,-2.3878978E-1,-7.627551E-1,-5.0719905E-1,4.9352857E-1,-1.3355437E-1,1.5377645E-1,1.4430761E0,-9.2460275E-1,1.0499111E0,-9.300862E-1,-3.1176418E-1,-2.6060578E-1,3.5035307E0,-1.3065999E0,3.2923276E0,5.4475915E-1,1.99286E0,-6.679289E0,1.0619023E0,-3.448879E-1,1.9471797E-1,-1.0763632E0,-7.4447227E-1,3.6337718E-3,-6.1104935E-1,2.7287182E-1,-5.638076E-1,-5.424812E-1,3.040047E-1,-1.3306592E0,-4.3633538E-1,5.020637E-1,-1.4604747E0,1.2891079E0,6.321435E-1],"split_indices":[2,2,0,0,3,3,3,3,0,3,0,3,0,2,2,3,2,2,3,2,0,2,0,0,0,2,2,3,3,2,0,3,2,3,3,3,3,3,3,3,0,0,2,0,0,2,0,2,3,2,2,2,2,2,0,2,0,3,2,2,0,3,3,0,0,0,0,0,0,0,0,0,0,0,0,0,0,0,0,0,0,0,0,0,0,0,0,0,0,0,0,0,0,0,0,0,0,0,0,0,0,0,0,0,0,0,0,0,0,0,0,0,0,0,0,0,0,0,0,0,0,0,0],"split_type":[0,0,0,0,0,0,0,0,0,0,0,0,0,0,0,0,0,0,0,0,0,0,0,0,0,0,0,0,0,0,0,0,0,0,0,0,0,0,0,0,0,0,0,0,0,0,0,0,0,0,0,0,0,0,0,0,0,0,0,0,0,0,0,0,0,0,0,0,0,0,0,0,0,0,0,0,0,0,0,0,0,0,0,0,0,0,0,0,0,0,0,0,0,0,0,0,0,0,0,0,0,0,0,0,0,0,0,0,0,0,0,0,0,0,0,0,0,0,0,0,0,0,0],"sum_hessian":[7.184E3,2.998E3,4.186E3,1.8E3,1.198E3,2.996E3,1.19E3,2.58E2,1.542E3,9.76E2,2.22E2,2.45E3,5.46E2,9.66E2,2.24E2,1.02E2,1.56E2,5.16E2,1.026E3,8.52E2,1.24E2,3.2E1,1.9E2,2.128E3,3.22E2,1.12E2,4.34E2,1.38E2,8.28E2,2.08E2,1.6E1,5.4E1,4.8E1,1.04E2,5.2E1,4.3E2,8.6E1,7.32E2,2.94E2,6.39E2,2.13E2,3.6E1,8.8E1,8E0,2.4E1,1.26E2,6.4E1,1.274E3,8.54E2,5.6E1,2.66E2,4E1,7.2E1,4.03E2,3.1E1,8.6E1,5.2E1,5.16E2,3.12E2,1.28E2,8E1,8E0,8E0,3E1,2.4E1,8E0,4E1,5.6E1,4.8E1,2.8E1,2.4E1,4.5E1,3.85E2,6E1,2.6E1,6.24E2,1.08E2,1.02E2,1.92E2,9.3E1,5.46E2,6.1E1,1.52E2,1.6E1,2E1,2.2E1,6.6E1,9.5E1,3.1E1,3.2E1,3.2E1,2.73E2,1.001E3,7.42E2,1.12E2,2.4E1,3.2E1,2.09E2,5.7E1,2.4E1,1.6E1,6.4E1,8E0,3.1E2,9.3E1,8E0,2.3E1,4.3E1,4.3E1,2.6E1,2.6E1,4.2E2,9.6E1,2.86E2,2.6E1,8E1,4.8E1,4E1,4E1,5E0,3E0,4E0,4E0],"tree_param":{"num_deleted":"0","num_feature":"4","num_nodes":"123","size_leaf_vector":"1"}},{"base_weights":[8.743706E-3,-1.4616914E-1,2.260124E-1,1.8473397E-1,-4.86927E-1,-1.4552851E-1,6.100285E-1,5.5821514E-1,-1.02116525E-1,2.7350253E-1,-6.951243E-1,7.759602E-2,-1.0138831E0,8.792376E-1,-4.661381E-1,1.03472404E-1,1.6903915E0,-5.0507367E-1,3.0100998E-1,-4.4074836E-1,8.025422E-1,-3.0084005E-1,-9.886062E-1,-3.812796E-1,4.1198668E-1,-2.6853821E0,-2.8849426E-1,1.2316611E0,-8.381601E-1,-1.0909795E0,2.5446908E0,1.7698121E0,-8.433976E-2,2.9984064E0,3.6966702E-1,1.4811856E0,-6.60235E-1,8.128179E-1,-1.8858333E-1,-1.125273E0,6.717811E-1,2.1847866E0,-2.2088465E-1,-1.2764904E0,3.425498E-1,-1.8409728E-1,-1.0693153E0,3.1331867E-1,-1.7641844E0,2.6812315E-1,1.6847458E0,-1.9666582E0,-7.0123024E0,6.9490904E-1,-1.8354067E0,7.136769E-1,2.8105931E0,-2.9659798E0,2.3507826E0,-1.9262713E0,9.832043E-1,5.0836997E0,1.2387524E0,3.0156666E-2,8.4778035E-1,1.6041982E-1,-7.5539365E-2,-4.2101756E-1,1.7524735E0,1.8003436E0,-3.567643E-1,1.8459238E-1,1.434036E0,-3.0958345E-2,-2.4801601E-1,-4.1376373E-1,3.546491E-1,3.4706873E-1,-1.2490479E-1,-7.064672E-2,-8.563394E-1,-3.6783555E-1,1.3094379E0,1.4234366E0,-1.2448173E-1,-2.6928174E-1,4.3573454E-1,-1.9816041E-1,-5.509588E-1,6.4398074E-1,-2.1418303E-1,4.8575622E-1,-4.544538E-1,-3.6152312E-1,-1.0391482E-1,-9.76542E-3,5.031661E-1,-2.8569108E-1,-7.402383E-1,3.1611955E-1,-3.787533E-2,-3.470088E-1,7.802083E-1,-9.0083116E-1,4.1639872E-2,-9.504244E-1,-3.7588322E0,-3.3311403E-1,8.060381E-1,-7.9326487E-1,-5.471633E-2,4.5120257E-1,-2.5238585E-1,2.0557535E0,-5.485512E-1,-1.6930882E0,-6.063664E-1,3.3917954E0,-4.8545387E-1,-1.2378528E0,-4.0996024E-1,6.8359596E-1,-1.0186673E-1,2.1155708E-1,2.6692064E0,-1.0730638E-2,1.4774032E0],"categories":[],"categories_nodes":[],"categories_segments":[],"categories_sizes":[],"default_left":[0,0,0,0,0,0,0,0,0,0,0,0,0,0,0,0,0,0,0,0,0,0,0,0,0,0,0,0,0,0,0,0,0,0,0,0,0,0,0,0,0,0,0,0,0,0,0,0,0,0,0,0,0,0,0,0,0,0,0,0,0,0,0,0,0,0,0,0,0,0,0,0,0,0,0,0,0,0,0,0,0,0,0,0,0,0,0,0,0,0,0,0,0,0,0,0,0,0,0,0,0,0,0,0,0,0,0,0,0,0,0,0,0,0,0,0,0,0,0,0,0,0,0,0,0,0,0],"id":11,"left_children":[1,3,5,7,9,11,13,15,17,19,21,23,25,27,29,31,33,35,37,39,41,43,45,47,49,51,53,55,57,59,61,63,65,67,69,71,73,75,77,79,81,83,85,87,89,91,93,95,97,99,101,103,105,107,109,111,113,115,117,119,121,123,125,-1,-1,-1,-1,-1,-1,-1,-1,-1,-1,-1,-1,-1,-1,-1,-1,-1,-1,-1,-1,-1,-1,-1,-1,-1,-1,-1,-1,-1,-1,-1,-1,-1,-1,-1,-1,-1,-1,-1,-1,-1,-1,-1,-1,-1,-1,-1,-1,-1,-1,-1,-1,-1,-1,-1,-1,-1,-1,-1,-1,-1,-1,-1,-1],"loss_changes":[2.4186368E2,4.7310907E2,4.268378E2,2.2814374E2,3.2743625E2,2.9477426E2,4.2657892E2,4.7606046E2,1.958955E2,1.6850456E2,1.8750854E2,1.859774E2,3.7630865E2,7.13413E2,5.577569E2,2.0701508E2,4.566864E2,1.8681686E2,1.5125165E2,1.4545114E2,3.626269E2,4.3607742E2,6.0189148E1,4.9140054E2,1.27903915E2,2.7853607E2,3.329055E2,7.9704504E2,1.3708569E3,4.2636832E2,1.628078E2,1.1783522E2,6.1817535E1,1.6727021E3,1.1747179E3,1.2274359E2,5.184845E1,2.404675E2,9.517606E1,1.8088339E2,5.170062E2,7.273969E2,1.6889595E2,9.3995636E1,8.001337E2,2.0882861E2,8.251636E1,1.6091547E2,9.528723E1,1.9563187E2,1.8779378E2,1.7929898E2,2.3602399E2,4.8483768E2,1.131608E2,9.069914E2,4.5314844E3,2.9469043E2,2.8972666E3,2.0985089E2,1.2243704E2,2.7759372E2,1.6459874E2,0E0,0E0,0E0,0E0,0E0,0E0,0E0,0E0,0E0,0E0,0E0,0E0,0E0,0E0,0E0,0E0,0E0,0E0,0E0,0E0,0E0,0E0,0E0,0E0,0E0,0E0,0E0,0E0,0E0,0E0,0E0,0E0,0E0,0E0,0E0,0E0,0E0,0E0,0E0,0E0,0E0,0E0,0E0,0E0,0E0,0E0,0E0,0E0,0E0,0E0,0E0,0E0,0E0,0E0,0E0,0E0,0E0,0E0,0E0,0E0,0E0,0E0,0E0,0E0],"parents":[2147483647,0,0,1,1,2,2,3,3,4,4,5,5,6,6,7,7,8,8,9,9,10,10,11,11,12,12,13,13,14,14,15,15,16,16,17,17,18,18,19,19,20,20,21,21,22,22,23,23,24,24,25,25,26,26,27,27,28,28,29,29,30,30,31,31,32,32,33,33,34,34,35,35,36,36,37,37,38,38,39,39,40,40,41,41,42,42,43,43,44,44,45,45,46,46,47,47,48,48,49,49,50,50,51,51,52,52,53,53,54,54,55,55,56,56,57,57,58,58,59,59,60,60,61,61,62,62],"right_children":[2,4,6,8,10,12,14,16,18,20,22,24,26,28,30,32,34,36,38,40,42,44,46,48,50,52,54,56,58,60,62,64,66,68,70,72,74,76,78,80,82,84,86,88,90,92,94,96,98,100,102,104,106,108,110,112,114,116,118,120,122,124,126,-1,-1,-1,-1,-1,-1,-1,-1,-1,-1,-1,-1,-1,-1,-1,-1,-1,-1,-1,-1,-1,-1,-1,-1,-1,-1,-1,-1,-1,-1,-1,-1,-1,-1,-1,-1,-1,-1,-1,-1,-1,-1,-1,-1,-1,-1,-1,-1,-1,-1,-1,-1,-1,-1,-1,-1,-1,-1,-1,-1,-1,-1,-1,-1],"split_conditions":[8.4E2,6E0,6E0,3E0,1.8E2,5E0,1.32E3,6E2,5E0,3E0,3E0,3E0,1.02E3,1E1,1E1,6E1,7.2E2,6E1,6E0,9E0,8E0,8E0,2.4E2,2E0,1.38E3,6E0,4E0,9E0,4E0,5E0,2E0,3E0,2E0,3E0,2E0,5E0,2.4E2,1.2E2,1.2E2,2E0,2E0,5E0,1E1,7E0,9E0,8E0,1E1,1.32E3,3E0,1.02E3,2E0,9.6E2,9.6E2,2E0,6E0,8E0,4E0,9.6E2,5E0,1E0,1.38E3,1.38E3,6E0,3.0156666E-2,8.4778035E-1,1.6041982E-1,-7.5539365E-2,-4.2101756E-1,1.7524735E0,1.8003436E0,-3.567643E-1,1.8459238E-1,1.434036E0,-3.0958345E-2,-2.4801601E-1,-4.1376373E-1,3.546491E-1,3.4706873E-1,-1.2490479E-1,-7.064672E-2,-8.563394E-1,-3.6783555E-1,1.3094379E0,1.4234366E0,-1.2448173E-1,-2.6928174E-1,4.3573454E-1,-1.9816041E-1,-5.509588E-1,6.4398074E-1,-2.1418303E-1,4.8575622E-1,-4.544538E-1,-3.6152312E-1,-1.0391482E-1,-9.76542E-3,5.031661E-1,-2.8569108E-1,-7.402383E-1,3.1611955E-1,-3.787533E-2,-3.470088E-1,7.802083E-1,-9.0083116E-1,4.1639872E-2,-9.504244E-1,-3.7588322E0,-3.3311403E-1,8.060381E-1,-7.9326487E-1,-5.471633E-2,4.5120257E-1,-2.5238585E-1,2.0557535E0,-5.485512E-1,-1.6930882E0,-6.063664E-1,3.3917954E0,-4.8545387E-1,-1.2378528E0,-4.0996024E-1,6.8359596E-1,-1.0186673E-1,2.1155708E-1,2.6692064E0,-1.0730638E-2,1.4774032E0],"split_indices":[2,3,3,0,2,3,2,2,0,0,0,0,2,3,3,2,2,2,0,3,3,3,2,0,2,0,0,3,0,0,0,3,3,3,3,3,2,2,2,0,0,0,3,3,3,3,3,2,3,2,3,2,2,0,0,3,0,2,0,0,2,2,0,0,0,0,0,0,0,0,0,0,0,0,0,0,0,0,0,0,0,0,0,0,0,0,0,0,0,0,0,0,0,0,0,0,0,0,0,0,0,0,0,0,0,0,0,0,0,0,0,0,0,0,0,0,0,0,0,0,0,0,0,0,0,0,0],"split_type":[0,0,0,0,0,0,0,0,0,0,0,0,0,0,0,0,0,0,0,0,0,0,0,0,0,0,0,0,0,0,0,0,0,0,0,0,0,0,0,0,0,0,0,0,0,0,0,0,0,0,0,0,0,0,0,0,0,0,0,0,0,0,0,0,0,0,0,0,0,0,0,0,0,0,0,0,0,0,0,0,0,0,0,0,0,0,0,0,0,0,0,0,0,0,0,0,0,0,0,0,0,0,0,0,0,0,0,0,0,0,0,0,0,0,0,0,0,0,0,0,0,0,0,0,0,0,0],"sum_hessian":[7.184E3,4.194E3,2.99E3,2.128E3,2.066E3,1.52E3,1.47E3,9.24E2,1.204E3,4.44E2,1.622E3,1.21E3,3.1E2,1.176E3,2.94E2,6.6E2,2.64E2,6.02E2,6.02E2,1.89E2,2.55E2,6.93E2,9.29E2,5.1E2,7E2,9.3E1,2.17E2,9.76E2,2E2,2.44E2,5E1,6.6E1,5.94E2,1.32E2,1.32E2,4.3E1,5.59E2,2.94E2,3.08E2,1.17E2,7.2E1,1.08E2,1.47E2,2.75E2,4.18E2,8.5E1,8.44E2,3.4E2,1.7E2,6.3E2,7E1,8.1E1,1.2E1,1.33E2,8.4E1,7.36E2,2.4E2,1.2E2,8E1,1.74E2,7E1,1.6E1,3.4E1,2.6E1,4E1,1.26E2,4.68E2,5.2E1,8E1,2.8E1,1.04E2,3.5E1,8E0,1.29E2,4.3E2,4.2E1,2.52E2,4.4E1,2.64E2,7.8E1,3.9E1,4.8E1,2.4E1,5.4E1,5.4E1,1.05E2,4.2E1,1.32E2,1.43E2,1.54E2,2.64E2,3.6E1,4.9E1,7.1E2,1.34E2,2.72E2,6.8E1,8E1,9E1,2.1E2,4.2E2,1.7E1,5.3E1,5.4E1,2.7E1,8E0,4E0,7E1,6.3E1,5.6E1,2.8E1,4.88E2,2.48E2,1.28E2,1.12E2,3E1,9E1,2.4E1,5.6E1,3.4E1,1.4E2,3.5E1,3.5E1,8E0,8E0,2.6E1,8E0],"tree_param":{"num_deleted":"0","num_feature":"4","num_nodes":"127","size_leaf_vector":"1"}},{"base_weights":[6.927389E-3,-5.3821117E-2,3.1086713E-1,-4.528617E-3,-3.4739533E-1,7.3236823E-1,-2.6030213E-1,-1.233553E-1,2.3841646E-1,-4.014888E-1,6.6614693E-1,3.450242E-1,2.4773045E0,4.0693905E-2,-1.539179E0,-6.628234E-2,-7.023667E-1,1.0269318E-1,1.9918753E0,-3.4279894E-2,-6.152134E-1,-5.7749763E-2,2.3968046E0,5.8909196E-1,-1.2094455E0,1.2793179E1,-1.0608366E0,-3.084028E-1,2.6402776E0,-5.4645605E0,-1.7378563E-1,-1.2331589E-1,4.3443355E-1,3.1410372E-1,-2.6519668E0,5.38952E-1,-1.3538014E0,6.962821E-2,6.354014E0,1.281925E0,-2.1161734E-1,-6.8267995E-1,-2.7391115E-1,1.2270713E0,-3.0070634E0,4.648932E0,-6.409158E-1,-1.9224133E-1,1.1681296E0,-2.098746E-1,-3.8649735E0,2.6934086E1,-3.0311089E0,6.676725E-1,-6.748124E0,5.619664E-1,-9.321497E-1,3.9402766E0,-1.2628171E0,-7.195676E0,-7.8215116E-1,-7.413547E-1,6.190936E-1,-6.5636123E-3,-1.5827689E-1,-1.3415024E-1,6.1834824E-1,-3.8457733E-1,1.7471944E0,-1.6325945E0,-4.437121E-1,6.852548E-2,6.883565E-1,-7.7904594E-1,-2.7942258E-1,9.750865E-1,-5.1731205E-1,4.342008E0,-6.2992597E-1,9.1028E-2,7.458252E-1,-1.1448183E-1,3.5898644E-1,-1.6170612E-1,-5.801942E-1,1.1869485E-1,-3.8399735E-1,5.241901E-2,7.732926E-1,-4.2531273E-1,-1.1491045E0,1.8743316E0,6.3609177E-1,4.0582618E-1,-3.0422515E-1,9.5657185E-3,6.888266E-1,-3.2588732E-1,4.759094E-2,-2.1554005E0,-5.817542E-2,-5.795264E0,1.2795397E1,1.3338535E0,-1.7682158E0,5.052888E-1,-4.0548483E-1,-3.6078303E0,2.3641698E-1,-9.325454E-2,9.3637264E-1,-1.8719834E-1,-4.543754E-1,5.6507415E-1,2.277709E0,-1.6444923E-1,-6.8898886E-1,-2.5659697E0,-8.3097523E-1,3.3384377E-1,-5.0245285E-1,-6.9363534E-1,6.375029E-1],"categories":[],"categories_nodes":[],"categories_segments":[],"categories_sizes":[],"default_left":[0,0,0,0,0,0,0,0,0,0,0,0,0,0,0,0,0,0,0,0,0,0,0,0,0,0,0,0,0,0,0,0,0,0,0,0,0,0,0,0,0,0,0,0,0,0,0,0,0,0,0,0,0,0,0,0,0,0,0,0,0,0,0,0,0,0,0,0,0,0,0,0,0,0,0,0,0,0,0,0,0,0,0,0,0,0,0,0,0,0,0,0,0,0,0,0,0,0,0,0,0,0,0,0,0,0,0,0,0,0,0,0,0,0,0,0,0,0,0,0,0,0,0],"id":12,"left_children":[1,3,5,7,9,11,13,15,17,19,21,23,25,27,29,31,33,35,37,39,41,43,45,47,49,51,53,55,57,59,61,63,65,67,69,71,73,75,77,79,81,83,85,87,89,91,-1,93,95,97,99,101,103,105,107,109,111,113,115,117,-1,119,121,-1,-1,-1,-1,-1,-1,-1,-1,-1,-1,-1,-1,-1,-1,-1,-1,-1,-1,-1,-1,-1,-1,-1,-1,-1,-1,-1,-1,-1,-1,-1,-1,-1,-1,-1,-1,-1,-1,-1,-1,-1,-1,-1,-1,-1,-1,-1,-1,-1,-1,-1,-1,-1,-1,-1,-1,-1,-1,-1,-1],"loss_changes":[1.3267973E2,8.666528E1,2.8836658E2,1.4809521E2,4.7472656E1,4.6483395E2,1.9599551E2,1.1379657E2,4.008005E2,6.4176834E1,5.5262375E1,2.1507115E2,4.575948E3,3.7561432E2,5.1894025E2,8.963878E1,6.1318164E2,9.9514404E2,1.01415564E3,7.0761826E1,1.1717697E1,1.2494878E2,1.426531E2,2.2145863E2,2.0357678E2,7.2422725E3,9.285753E2,1.9867874E2,2.5360272E2,1.0490143E2,3.330997E1,1.1550908E2,4.6127563E2,1.8014253E3,3.388341E2,6.5639795E2,1.8712146E2,4.90624E2,2.5700352E3,4.166329E1,6.437237E1,7.643468E1,5.911238E1,3.2238617E1,7.654587E0,2.3138626E1,0E0,2.6674802E2,3.600667E2,1.8581566E1,2.5452914E2,1.3182032E4,3.6871887E2,1.52135E2,8.8454443E2,3.4273764E2,3.728421E1,2.636148E2,8.345692E0,6.643152E1,0E0,7.629003E1,1.4175217E2,0E0,0E0,0E0,0E0,0E0,0E0,0E0,0E0,0E0,0E0,0E0,0E0,0E0,0E0,0E0,0E0,0E0,0E0,0E0,0E0,0E0,0E0,0E0,0E0,0E0,0E0,0E0,0E0,0E0,0E0,0E0,0E0,0E0,0E0,0E0,0E0,0E0,0E0,0E0,0E0,0E0,0E0,0E0,0E0,0E0,0E0,0E0,0E0,0E0,0E0,0E0,0E0,0E0,0E0,0E0,0E0,0E0,0E0,0E0,0E0],"parents":[2147483647,0,0,1,1,2,2,3,3,4,4,5,5,6,6,7,7,8,8,9,9,10,10,11,11,12,12,13,13,14,14,15,15,16,16,17,17,18,18,19,19,20,20,21,21,22,22,23,23,24,24,25,25,26,26,27,27,28,28,29,29,30,30,31,31,32,32,33,33,34,34,35,35,36,36,37,37,38,38,39,39,40,40,41,41,42,42,43,43,44,44,45,45,47,47,48,48,49,49,50,50,51,51,52,52,53,53,54,54,55,55,56,56,57,57,58,58,59,59,61,61,62,62],"right_children":[2,4,6,8,10,12,14,16,18,20,22,24,26,28,30,32,34,36,38,40,42,44,46,48,50,52,54,56,58,60,62,64,66,68,70,72,74,76,78,80,82,84,86,88,90,92,-1,94,96,98,100,102,104,106,108,110,112,114,116,118,-1,120,122,-1,-1,-1,-1,-1,-1,-1,-1,-1,-1,-1,-1,-1,-1,-1,-1,-1,-1,-1,-1,-1,-1,-1,-1,-1,-1,-1,-1,-1,-1,-1,-1,-1,-1,-1,-1,-1,-1,-1,-1,-1,-1,-1,-1,-1,-1,-1,-1,-1,-1,-1,-1,-1,-1,-1,-1,-1,-1,-1,-1],"split_conditions":[1.2E3,6E0,4E0,4E0,1.14E3,9E0,9E0,1E1,1E1,4.2E2,8E0,8E0,1.26E3,8E0,1.26E3,9E0,7.8E2,8E0,8.4E2,2E0,1.02E3,6E0,1E1,4E0,3E0,1E1,3E0,4E0,1.38E3,1E1,1E1,9.6E2,7.8E2,6E2,9E2,7E0,3E2,3E2,1.02E3,2.4E2,1E1,9.6E2,7E0,4E0,7E0,9E0,-6.409158E-1,2E0,2E0,1E0,1.32E3,1E0,1E0,1.38E3,1E1,1.38E3,6E0,6E0,6E0,6E0,-7.8215116E-1,1.32E3,1.32E3,-6.5636123E-3,-1.5827689E-1,-1.3415024E-1,6.1834824E-1,-3.8457733E-1,1.7471944E0,-1.6325945E0,-4.437121E-1,6.852548E-2,6.883565E-1,-7.7904594E-1,-2.7942258E-1,9.750865E-1,-5.1731205E-1,4.342008E0,-6.2992597E-1,9.1028E-2,7.458252E-1,-1.1448183E-1,3.5898644E-1,-1.6170612E-1,-5.801942E-1,1.1869485E-1,-3.8399735E-1,5.241901E-2,7.732926E-1,-4.2531273E-1,-1.1491045E0,1.8743316E0,6.3609177E-1,4.0582618E-1,-3.0422515E-1,9.5657185E-3,6.888266E-1,-3.2588732E-1,4.759094E-2,-2.1554005E0,-5.817542E-2,-5.795264E0,1.2795397E1,1.3338535E0,-1.7682158E0,5.052888E-1,-4.0548483E-1,-3.6078303E0,2.3641698E-1,-9.325454E-2,9.3637264E-1,-1.8719834E-1,-4.543754E-1,5.6507415E-1,2.277709E0,-1.6444923E-1,-6.8898886E-1,-2.5659697E0,-8.3097523E-1,3.3384377E-1,-5.0245285E-1,-6.9363534E-1,6.375029E-1],"split_indices":[2,0,0,0,2,3,3,3,3,2,3,3,2,3,2,3,2,3,2,3,2,3,3,3,0,3,0,3,2,3,3,2,2,2,2,3,2,2,2,2,3,2,3,3,3,3,0,3,0,0,2,0,0,2,3,2,0,0,0,0,0,2,2,0,0,0,0,0,0,0,0,0,0,0,0,0,0,0,0,0,0,0,0,0,0,0,0,0,0,0,0,0,0,0,0,0,0,0,0,0,0,0,0,0,0,0,0,0,0,0,0,0,0,0,0,0,0,0,0,0,0,0,0],"split_type":[0,0,0,0,0,0,0,0,0,0,0,0,0,0,0,0,0,0,0,0,0,0,0,0,0,0,0,0,0,0,0,0,0,0,0,0,0,0,0,0,0,0,0,0,0,0,0,0,0,0,0,0,0,0,0,0,0,0,0,0,0,0,0,0,0,0,0,0,0,0,0,0,0,0,0,0,0,0,0,0,0,0,0,0,0,0,0,0,0,0,0,0,0,0,0,0,0,0,0,0,0,0,0,0,0,0,0,0,0,0,0,0,0,0,0,0,0,0,0,0,0,0,0],"sum_hessian":[7.184E3,5.988E3,1.196E3,5.128E3,8.6E2,6.88E2,5.08E2,3.444E3,1.684E3,8.17E2,4.3E1,5.64E2,1.24E2,4.12E2,9.6E1,3.136E3,3.08E2,1.564E3,1.2E2,3.01E2,5.16E2,3.1E1,1.2E1,4.88E2,7.6E1,3.1E1,9.3E1,3.64E2,4.8E1,2.4E1,7.2E1,2.816E3,3.2E2,2.03E2,1.05E2,1.204E3,3.6E2,8.4E1,3.6E1,3.5E1,2.66E2,4.3E2,8.6E1,2.2E1,9E0,8E0,4E0,2.08E2,2.8E2,5.6E1,2E1,1.6E1,1.5E1,7.2E1,2.1E1,1.52E2,2.12E2,3.6E1,1.2E1,1.4E1,1E1,4.2E1,3E1,2.252E3,5.64E2,2.08E2,1.12E2,1.58E2,4.5E1,3E1,7.5E1,1.024E3,1.8E2,9E1,2.7E2,3E1,5.4E1,1.8E1,1.8E1,2E1,1.5E1,2.38E2,2.8E1,3.87E2,4.3E1,5.2E1,3.4E1,1.3E1,9E0,4E0,5E0,4E0,4E0,7.2E1,1.36E2,1.4E2,1.4E2,1.6E1,4E1,1E1,1E1,4E0,1.2E1,4E0,1.1E1,4.8E1,2.4E1,1.2E1,9E0,1.14E2,3.8E1,1.4E2,7.2E1,2.4E1,1.2E1,8E0,4E0,1E1,4E0,1.4E1,2.8E1,1E1,2E1],"tree_param":{"num_deleted":"0","num_feature":"4","num_nodes":"123","size_leaf_vector":"1"}},{"base_weights":[5.4138904E-3,-8.455351E-2,1.3159505E-1,1.2849244E-1,-3.039489E-1,-2.1592939E-1,3.9527667E-1,4.0134755E-1,-8.106729E-2,3.895442E-2,-6.4855295E-1,1.608813E-1,-9.681755E-1,9.2346144E-1,-1.3337259E-1,8.044031E-2,1.2002847E0,-3.818859E-1,2.1988575E-1,-1.0949463E0,2.2746943E-1,-8.3900785E-1,2.75105E-1,-1.9219744E-1,1.6972001E0,-1.7250692E0,7.975943E-1,1.4670274E0,-3.456355E-1,1.0398531E0,-2.7349105E-1,1.2584381E0,-5.234338E-2,1.7812097E0,-5.430642E-1,6.052634E-1,-5.4726326E-1,5.997491E-1,-1.6070566E-1,-4.6970117E-1,-1.9082415E0,2.0015693E0,-1.2622404E-1,-1.030218E0,-3.587285E-1,-9.514853E-1,1.2075045E0,7.627861E-1,-5.2359825E-1,4.1003146E0,-7.268676E-1,-8.319863E-1,-6.9428735E0,-1.3138022E0,2.1772783E0,4.771019E-1,2.4754698E0,1.2772606E-1,-2.5094106E0,2.797604E0,-3.9363012E-1,-2.4161935E0,-1.8230595E-2,1.2200563E-1,7.290851E-1,-1.2420005E-1,5.4968752E-2,2.6276088E-1,7.072737E-1,-4.7137067E-2,-5.290289E-1,1.7094813E-4,9.285434E-1,-2.6247934E-1,-2.5980422E-2,2.0534318E-2,3.9065254E-1,-1.3473198E-1,3.260374E-1,-4.1065052E-1,6.564669E-2,-5.0573327E-2,-9.519509E-1,-1.0056811E-1,1.5221556E0,1.5120912E-1,-1.7969659E-1,-1.9146016E-1,-7.741053E-1,5.2832484E-1,-2.1259676E-1,-7.858632E-1,-1.809706E-1,1.0927706E0,-3.753709E-1,-1.485569E-1,6.037139E-1,1.7638344E-1,-4.8994055E-1,1.9597796E0,-4.82514E0,-4.966138E-1,2.065547E0,-4.132516E-1,7.870332E-2,-6.782233E-1,-7.4699883E0,1.1137897E-1,-8.314211E-1,1.494598E0,-2.0456065E-1,2.8391477E-1,-4.5321688E-2,5.4086155E-1,1.9125841E0,-7.960144E-1,1.4965466E-1,-1.591261E0,5.223916E-1,1.8801517E0,9.791808E-2,-1.8365422E-1,4.0425885E-1,-5.31511E-1,-2.2125776E0,2.4573483E-1,-6.860584E-2],"categories":[],"categories_nodes":[],"categories_segments":[],"categories_sizes":[],"default_left":[0,0,0,0,0,0,0,0,0,0,0,0,0,0,0,0,0,0,0,0,0,0,0,0,0,0,0,0,0,0,0,0,0,0,0,0,0,0,0,0,0,0,0,0,0,0,0,0,0,0,0,0,0,0,0,0,0,0,0,0,0,0,0,0,0,0,0,0,0,0,0,0,0,0,0,0,0,0,0,0,0,0,0,0,0,0,0,0,0,0,0,0,0,0,0,0,0,0,0,0,0,0,0,0,0,0,0,0,0,0,0,0,0,0,0,0,0,0,0,0,0,0,0,0,0,0,0],"id":13,"left_children":[1,3,5,7,9,11,13,15,17,19,21,23,25,27,29,31,33,35,37,39,41,43,45,47,49,51,53,55,57,59,61,63,65,67,69,71,73,75,77,79,81,83,85,87,89,91,93,95,97,99,101,103,105,107,109,111,113,115,117,119,121,123,125,-1,-1,-1,-1,-1,-1,-1,-1,-1,-1,-1,-1,-1,-1,-1,-1,-1,-1,-1,-1,-1,-1,-1,-1,-1,-1,-1,-1,-1,-1,-1,-1,-1,-1,-1,-1,-1,-1,-1,-1,-1,-1,-1,-1,-1,-1,-1,-1,-1,-1,-1,-1,-1,-1,-1,-1,-1,-1,-1,-1,-1,-1,-1,-1],"loss_changes":[8.157661E1,1.961188E2,2.7416803E2,1.2176757E2,2.442741E2,3.6609537E2,4.7508408E2,2.370593E2,1.09175354E2,2.2191539E2,1.815994E2,4.673683E2,5.7740735E2,5.875592E2,1.4018079E2,1.0345876E2,2.6934735E2,9.877228E1,8.727373E1,7.436299E1,5.5871655E2,7.814874E1,2.0357889E2,2.2225351E2,9.408557E2,1.401523E3,3.8155826E2,5.9379565E2,2.6252798E2,2.3039453E2,4.1618274E2,6.588584E1,5.076772E1,1.0177527E2,3.1279163E1,1.3098676E2,7.796234E1,1.1261723E2,1.0914142E2,5.2920876E1,1.4030026E2,1.064237E3,2.2168759E2,3.6964514E2,1.8298407E2,4.3149208E1,6.0926404E2,2.8552094E2,6.435084E2,4.081642E3,5.838937E2,1.5497873E2,3.6431133E3,1.287489E2,6.369054E2,8.9169525E1,7.622925E2,2.1910356E2,5.557102E2,3.494898E2,2.0232035E1,2.4581473E2,1.2019602E2,0E0,0E0,0E0,0E0,0E0,0E0,0E0,0E0,0E0,0E0,0E0,0E0,0E0,0E0,0E0,0E0,0E0,0E0,0E0,0E0,0E0,0E0,0E0,0E0,0E0,0E0,0E0,0E0,0E0,0E0,0E0,0E0,0E0,0E0,0E0,0E0,0E0,0E0,0E0,0E0,0E0,0E0,0E0,0E0,0E0,0E0,0E0,0E0,0E0,0E0,0E0,0E0,0E0,0E0,0E0,0E0,0E0,0E0,0E0,0E0,0E0,0E0,0E0,0E0],"parents":[2147483647,0,0,1,1,2,2,3,3,4,4,5,5,6,6,7,7,8,8,9,9,10,10,11,11,12,12,13,13,14,14,15,15,16,16,17,17,18,18,19,19,20,20,21,21,22,22,23,23,24,24,25,25,26,26,27,27,28,28,29,29,30,30,31,31,32,32,33,33,34,34,35,35,36,36,37,37,38,38,39,39,40,40,41,41,42,42,43,43,44,44,45,45,46,46,47,47,48,48,49,49,50,50,51,51,52,52,53,53,54,54,55,55,56,56,57,57,58,58,59,59,60,60,61,61,62,62],"right_children":[2,4,6,8,10,12,14,16,18,20,22,24,26,28,30,32,34,36,38,40,42,44,46,48,50,52,54,56,58,60,62,64,66,68,70,72,74,76,78,80,82,84,86,88,90,92,94,96,98,100,102,104,106,108,110,112,114,116,118,120,122,124,126,-1,-1,-1,-1,-1,-1,-1,-1,-1,-1,-1,-1,-1,-1,-1,-1,-1,-1,-1,-1,-1,-1,-1,-1,-1,-1,-1,-1,-1,-1,-1,-1,-1,-1,-1,-1,-1,-1,-1,-1,-1,-1,-1,-1,-1,-1,-1,-1,-1,-1,-1,-1,-1,-1,-1,-1,-1,-1,-1,-1,-1,-1,-1,-1],"split_conditions":[8.4E2,6E0,3E0,3E0,4.2E2,2E0,5E0,6E2,5E0,1E0,1E1,9E0,1.26E3,1.26E3,2E0,6E1,7.8E2,1.2E2,4.2E2,2.4E2,2E0,7.2E2,6E2,3E0,1E1,1.2E3,5E0,6E0,9E0,6E0,3E0,4E0,3E0,3E0,5E0,5E0,5.4E2,2.4E2,5E0,8E0,8E0,2.4E2,1.8E2,6.6E2,1E0,1E0,7.2E2,1E0,1E0,1.38E3,1.38E3,1.08E3,9E0,3E0,8E0,1.08E3,1.2E3,2E0,1E1,1.08E3,1.38E3,1.38E3,9.6E2,1.2200563E-1,7.290851E-1,-1.2420005E-1,5.4968752E-2,2.6276088E-1,7.072737E-1,-4.7137067E-2,-5.290289E-1,1.7094813E-4,9.285434E-1,-2.6247934E-1,-2.5980422E-2,2.0534318E-2,3.9065254E-1,-1.3473198E-1,3.260374E-1,-4.1065052E-1,6.564669E-2,-5.0573327E-2,-9.519509E-1,-1.0056811E-1,1.5221556E0,1.5120912E-1,-1.7969659E-1,-1.9146016E-1,-7.741053E-1,5.2832484E-1,-2.1259676E-1,-7.858632E-1,-1.809706E-1,1.0927706E0,-3.753709E-1,-1.485569E-1,6.037139E-1,1.7638344E-1,-4.8994055E-1,1.9597796E0,-4.82514E0,-4.966138E-1,2.065547E0,-4.132516E-1,7.870332E-2,-6.782233E-1,-7.4699883E0,1.1137897E-1,-8.314211E-1,1.494598E0,-2.0456065E-1,2.8391477E-1,-4.5321688E-2,5.4086155E-1,1.9125841E0,-7.960144E-1,1.4965466E-1,-1.591261E0,5.223916E-1,1.8801517E0,9.791808E-2,-1.8365422E-1,4.0425885E-1,-5.31511E-1,-2.2125776E0,2.4573483E-1,-6.860584E-2],"split_indices":[2,3,0,0,2,0,0,2,0,0,3,3,2,2,3,2,2,2,2,2,0,2,2,3,3,2,3,3,3,0,3,3,3,3,3,3,2,2,3,3,3,2,2,2,0,0,2,0,0,2,2,2,3,3,3,2,2,3,3,2,2,2,2,0,0,0,0,0,0,0,0,0,0,0,0,0,0,0,0,0,0,0,0,0,0,0,0,0,0,0,0,0,0,0,0,0,0,0,0,0,0,0,0,0,0,0,0,0,0,0,0,0,0,0,0,0,0,0,0,0,0,0,0,0,0,0,0],"split_type":[0,0,0,0,0,0,0,0,0,0,0,0,0,0,0,0,0,0,0,0,0,0,0,0,0,0,0,0,0,0,0,0,0,0,0,0,0,0,0,0,0,0,0,0,0,0,0,0,0,0,0,0,0,0,0,0,0,0,0,0,0,0,0,0,0,0,0,0,0,0,0,0,0,0,0,0,0,0,0,0,0,0,0,0,0,0,0,0,0,0,0,0,0,0,0,0,0,0,0,0,0,0,0,0,0,0,0,0,0,0,0,0,0,0,0,0,0,0,0,0,0,0,0,0,0,0,0],"sum_hessian":[7.184E3,4.194E3,2.99E3,2.128E3,2.066E3,1.29E3,1.7E3,9.24E2,1.204E3,1.036E3,1.03E3,8.6E2,4.3E2,8.5E2,8.5E2,6.6E2,2.64E2,6.02E2,6.02E2,1.47E2,8.89E2,8.54E2,1.76E2,7E2,1.6E2,3.01E2,1.29E2,5.95E2,2.55E2,9E1,7.6E2,6.6E1,5.94E2,1.98E2,6.6E1,8.6E1,5.16E2,3.01E2,3.01E2,8.4E1,6.3E1,1.47E2,7.42E2,6.1E2,2.44E2,7.6E1,1E2,1.8E2,5.2E2,8E1,8E1,2.58E2,4.3E1,5.1E1,7.8E1,3.01E2,2.94E2,2.1E2,4.5E1,4E1,5E1,8E1,6.8E2,3.9E1,2.7E1,2.34E2,3.6E2,7.8E1,1.2E2,5.1E1,1.5E1,7E1,1.6E1,3.01E2,2.15E2,1.72E2,1.29E2,2.45E2,5.6E1,3.6E1,4.8E1,2.7E1,3.6E1,8.4E1,6.3E1,3.18E2,4.24E2,4.88E2,1.22E2,3.4E1,2.1E2,1.2E1,6.4E1,5E1,5E1,9E1,9E1,2.6E2,2.6E2,7.2E1,8E0,7.2E1,8E0,1.72E2,8.6E1,3.5E1,8E0,2.4E1,2.7E1,3.9E1,3.9E1,1.72E2,1.29E2,2.52E2,4.2E1,2.4E1,1.86E2,2.7E1,1.8E1,1.6E1,2.4E1,4.5E1,5E0,7.2E1,8E0,1.36E2,5.44E2],"tree_param":{"num_deleted":"0","num_feature":"4","num_nodes":"127","size_leaf_vector":"1"}},{"base_weights":[2.8302546E-3,-4.849064E-2,2.5960386E-1,-3.342429E-1,-5.1224296E-4,9.9914217E-1,-3.9810352E-2,-1.2275645E0,-9.6320115E-2,3.748645E-2,-3.4249946E-1,2.1226557E-1,4.385499E0,-8.6033344E-1,1.6869229E-1,-2.6903015E-1,-2.4076185E0,1.2047701E0,-4.9819958E-1,9.489473E-2,-2.4723293E-1,-2.194354E0,3.5612598E-2,1.2357124E0,3.7271425E-2,1.4337555E1,8.4324485E-1,-5.045199E0,5.627005E-1,1.072343E0,-1.3877384E-1,1.4421368E0,-1.0123702E0,-1.8978695E0,-9.7686243E-1,1.5236073E0,2.344267E-1,-7.83872E-1,1.1100421E0,3.135098E-1,1.1905094E-3,1.372068E-1,-3.2421425E-1,-1.8639262E0,-4.85096E0,-3.1865245E-1,5.890711E-1,2.1698112E0,-1.5090855E0,3.9389893E-1,-3.1966412E-1,-6.929316E0,3.4011364E1,3.0918193E0,-3.5712376E0,5.3523034E-1,-1.3135554E1,-9.3350834E-1,1.5404241E0,4.662973E0,-1.51196E-1,9.1644454E-1,-3.9901415E-1,4.8054996E-1,1.5292892E-1,-5.209701E-1,-6.571327E-3,-6.4868814E-1,3.2191867E-1,2.964066E-1,8.7656856E-1,-1.3021243E-1,2.675195E-1,-3.1735966E-1,-4.9249504E-2,1.0266017E0,-1.2062036E0,-2.1098137E-2,2.746486E-1,1.4966534E-1,-1.8439218E-2,-1.3084203E-2,5.3038466E-1,7.1328826E-2,-1.1953365E-1,-4.1735113E-1,-7.2555006E-1,-2.1714897E0,-4.4802877E-1,-2.4855918E-1,1.0615116E-2,5.49468E-1,-7.229597E-2,9.893535E-2,1.6456004E0,-4.3697357E-2,-7.8629977E-1,4.0411088E-1,-1.6970873E-1,-3.47868E-1,6.468445E-1,-4.874747E0,1.1329161E0,2.1429626E1,-3.0634873E0,-1.112216E0,2.912746E0,2.6996012E0,-4.723303E0,6.9523054E-1,-1.01142555E-1,-6.018873E0,2.666446E0,3.9895618E-1,-4.9372903E-1,1.8147529E0,1.167501E-1,-3.5051194E-1,9.315023E0,2.0158736E-1,-1.266803E0,-7.000308E-2,1.2726349E0,-2.2549336E-1,9.197554E-2],"categories":[],"categories_nodes":[],"categories_segments":[],"categories_sizes":[],"default_left":[0,0,0,0,0,0,0,0,0,0,0,0,0,0,0,0,0,0,0,0,0,0,0,0,0,0,0,0,0,0,0,0,0,0,0,0,0,0,0,0,0,0,0,0,0,0,0,0,0,0,0,0,0,0,0,0,0,0,0,0,0,0,0,0,0,0,0,0,0,0,0,0,0,0,0,0,0,0,0,0,0,0,0,0,0,0,0,0,0,0,0,0,0,0,0,0,0,0,0,0,0,0,0,0,0,0,0,0,0,0,0,0,0,0,0,0,0,0,0,0,0,0,0,0,0],"id":14,"left_children":[1,3,5,7,9,11,13,15,17,19,21,23,25,27,29,31,33,35,37,39,41,43,45,47,49,51,53,55,57,59,61,63,65,67,-1,69,71,73,75,77,79,81,83,85,87,89,91,93,95,97,99,101,103,105,107,109,111,113,115,117,119,121,123,-1,-1,-1,-1,-1,-1,-1,-1,-1,-1,-1,-1,-1,-1,-1,-1,-1,-1,-1,-1,-1,-1,-1,-1,-1,-1,-1,-1,-1,-1,-1,-1,-1,-1,-1,-1,-1,-1,-1,-1,-1,-1,-1,-1,-1,-1,-1,-1,-1,-1,-1,-1,-1,-1,-1,-1,-1,-1,-1,-1,-1,-1],"loss_changes":[9.469545E1,8.210863E1,2.6508945E2,1.8288004E2,6.666454E1,9.183717E2,1.4607742E2,2.0408542E2,3.5668246E2,7.548949E1,3.5928513E2,5.0280254E1,2.2793362E3,1.0330895E3,1.8935922E2,1.2992986E2,2.8858124E1,4.9453262E1,2.4023335E2,7.8724075E1,2.2980362E1,6.732825E1,8.391003E1,1.0839486E2,3.0803537E1,7.3484824E3,4.9742993E2,1.9935272E3,1.9161224E2,7.6074176E2,1.4014233E2,3.79924E0,5.08897E1,4.3956345E1,0E0,8.7730316E1,1.8401932E1,7.504581E1,9.5085986E2,2.664815E2,8.394357E1,3.8410477E1,2.7043427E1,1.7347534E1,6.133017E1,4.7143806E1,1.7267471E2,1.873112E2,1.629438E1,1.114317E2,2.5411053E2,9.593419E2,1.5623141E4,1.520752E3,2.7429297E3,4.2759438E1,2.9245117E3,8.601737E1,4.0771375E2,6.806661E3,4.385266E2,3.8719543E2,1.01996086E2,0E0,0E0,0E0,0E0,0E0,0E0,0E0,0E0,0E0,0E0,0E0,0E0,0E0,0E0,0E0,0E0,0E0,0E0,0E0,0E0,0E0,0E0,0E0,0E0,0E0,0E0,0E0,0E0,0E0,0E0,0E0,0E0,0E0,0E0,0E0,0E0,0E0,0E0,0E0,0E0,0E0,0E0,0E0,0E0,0E0,0E0,0E0,0E0,0E0,0E0,0E0,0E0,0E0,0E0,0E0,0E0,0E0,0E0,0E0,0E0,0E0,0E0],"parents":[2147483647,0,0,1,1,2,2,3,3,4,4,5,5,6,6,7,7,8,8,9,9,10,10,11,11,12,12,13,13,14,14,15,15,16,16,17,17,18,18,19,19,20,20,21,21,22,22,23,23,24,24,25,25,26,26,27,27,28,28,29,29,30,30,31,31,32,32,33,33,35,35,36,36,37,37,38,38,39,39,40,40,41,41,42,42,43,43,44,44,45,45,46,46,47,47,48,48,49,49,50,50,51,51,52,52,53,53,54,54,55,55,56,56,57,57,58,58,59,59,60,60,61,61,62,62],"right_children":[2,4,6,8,10,12,14,16,18,20,22,24,26,28,30,32,34,36,38,40,42,44,46,48,50,52,54,56,58,60,62,64,66,68,-1,70,72,74,76,78,80,82,84,86,88,90,92,94,96,98,100,102,104,106,108,110,112,114,116,118,120,122,124,-1,-1,-1,-1,-1,-1,-1,-1,-1,-1,-1,-1,-1,-1,-1,-1,-1,-1,-1,-1,-1,-1,-1,-1,-1,-1,-1,-1,-1,-1,-1,-1,-1,-1,-1,-1,-1,-1,-1,-1,-1,-1,-1,-1,-1,-1,-1,-1,-1,-1,-1,-1,-1,-1,-1,-1,-1,-1,-1,-1,-1,-1],"split_conditions":[1.2E3,1E0,2E0,3E0,1.08E3,9E0,3E0,2E0,5E0,6E0,2E0,2E0,1.26E3,1.26E3,4E0,3.6E2,7.8E2,9E2,1.02E3,4E0,1.8E2,1E1,7E0,1.38E3,1E0,1E0,1.38E3,7E0,5E0,1.26E3,3E0,3E2,8.4E2,7.2E2,-9.7686243E-1,6.6E2,4E0,9E0,9E0,6.6E2,1.2E2,1E1,2E0,6E0,1.14E3,4E0,4E0,1.32E3,1E0,1.32E3,1.38E3,1E1,1E1,1E0,1E0,3E0,1E1,2E0,6E0,9E0,9E0,1.38E3,6E0,4.8054996E-1,1.5292892E-1,-5.209701E-1,-6.571327E-3,-6.4868814E-1,3.2191867E-1,2.964066E-1,8.7656856E-1,-1.3021243E-1,2.675195E-1,-3.1735966E-1,-4.9249504E-2,1.0266017E0,-1.2062036E0,-2.1098137E-2,2.746486E-1,1.4966534E-1,-1.8439218E-2,-1.3084203E-2,5.3038466E-1,7.1328826E-2,-1.1953365E-1,-4.1735113E-1,-7.2555006E-1,-2.1714897E0,-4.4802877E-1,-2.4855918E-1,1.0615116E-2,5.49468E-1,-7.229597E-2,9.893535E-2,1.6456004E0,-4.3697357E-2,-7.8629977E-1,4.0411088E-1,-1.6970873E-1,-3.47868E-1,6.468445E-1,-4.874747E0,1.1329161E0,2.1429626E1,-3.0634873E0,-1.112216E0,2.912746E0,2.6996012E0,-4.723303E0,6.9523054E-1,-1.01142555E-1,-6.018873E0,2.666446E0,3.9895618E-1,-4.9372903E-1,1.8147529E0,1.167501E-1,-3.5051194E-1,9.315023E0,2.0158736E-1,-1.266803E0,-7.000308E-2,1.2726349E0,-2.2549336E-1,9.197554E-2],"split_indices":[2,0,0,3,2,3,0,3,3,0,0,3,2,2,0,2,2,2,2,3,2,3,3,2,0,0,2,3,3,2,3,2,2,2,0,2,3,3,3,2,2,3,3,3,2,0,0,2,0,2,2,3,3,0,0,3,3,3,3,3,3,2,0,0,0,0,0,0,0,0,0,0,0,0,0,0,0,0,0,0,0,0,0,0,0,0,0,0,0,0,0,0,0,0,0,0,0,0,0,0,